{"learner":{"attributes":{"scikit_learn":"{\"_estimator_type\": \"regressor\"}"},"feature_names":[],"feature_types":[],"gradient_booster":{"model":{"gbtree_model_param":{"num_parallel_tree":"1","num_trees":"100"},"iteration_indptr":[0,1,2,3,4,5,6,7,8,9,10,11,12,13,14,15,16,17,18,19,20,21,22,23,24,25,26,27,28,29,30,31,32,33,34,35,36,37,38,39,40,41,42,43,44,45,46,47,48,49,50,51,52,53,54,55,56,57,58,59,60,61,62,63,64,65,66,67,68,69,70,71,72,73,74,75,76,77,78,79,80,81,82,83,84,85,86,87,88,89,90,91,92,93,94,95,96,97,98,99,100],"tree_info":[0,0,0,0,0,0,0,0,0,0,0,0,0,0,0,0,0,0,0,0,0,0,0,0,0,0,0,0,0,0,0,0,0,0,0,0,0,0,0,0,0,0,0,0,0,0,0,0,0,0,0,0,0,0,0,0,0,0,0,0,0,0,0,0,0,0,0,0,0,0,0,0,0,0,0,0,0,0,0,0,0,0,0,0,0,0,0,0,0,0,0,0,0,0,0,0,0,0,0,0],"trees":[{"base_weights":[5.1028437E-8,-6.17197E-1,4.0305597E-1,-3.8227633E-1,-1.1245402E0,1.0002215E0,-6.4687705E-1,-9.8376447E-1,1.2991291E-1,-3.3849126E-1,-3.720805E-2,3.273071E-1,2.0091543E0,-8.8775784E-1,1.767767E0,-9.4431436E-1,-3.383232E-1,3.7945047E-2,2.2124932E0,1.2941039E0,-9.905802E-1,2.1173236E0,2.6113546E-1,-6.496433E-1,-1.1170188E0,8.6045915E-1,-3.3750162E-1,-9.842469E-1,1.0762203E0,9.4418687E-1,-3.7009563E-2,2.5633798E0,1.6935863E0,9.81354E-1,2.238191E0,-3.8488917E-2,-3.384695E-1,1.6247123E0,2.4720628E0,-1.0796354E0,1.8882835E0,-3.384773E-1,-9.406073E-1,-2.7262613E-1,-3.141374E-1,5.477689E-1,1.92128E-1,4.8697997E-2,4.6577272E-1,-4.8455924E-2,6.577952E-2,5.528252E-1,8.5583264E-1,-3.2241613E-1,6.373298E-1,3.4526804E-1,2.0088255E-1,5.610136E-1,8.602782E-1,4.0470523E-1,5.711238E-1,8.4220636E-1,6.201231E-1,-3.384629E-1,-1.6020307E-1,6.981901E-1,5.607734E-1,7.5296503E-1,-3.3756968E-1],"categories":[],"categories_nodes":[],"categories_segments":[],"categories_sizes":[],"default_left":[0,0,0,0,0,0,0,0,0,0,0,0,0,0,0,0,0,0,0,0,0,0,0,0,0,0,0,0,0,0,0,0,0,0,0,0,0,0,0,0,0,0,0,0,0,0,0,0,0,0,0,0,0,0,0,0,0,0,0,0,0,0,0,0,0,0,0,0,0],"id":0,"left_children":[1,3,5,7,9,11,13,15,17,-1,-1,19,21,23,25,27,-1,29,31,33,35,37,-1,39,41,-1,-1,43,45,47,49,51,53,55,57,-1,-1,59,61,63,65,-1,67,-1,-1,-1,-1,-1,-1,-1,-1,-1,-1,-1,-1,-1,-1,-1,-1,-1,-1,-1,-1,-1,-1,-1,-1,-1,-1],"loss_changes":[1.4799771E4,2.8007852E3,2.2565797E4,4.949673E3,2.7870117E1,1.5575248E4,7.5914087E3,4.0904785E1,1.6620173E3,0E0,0E0,1.7538396E4,1.1287617E3,6.4704395E2,3.7722456E3,4.6951758E2,0E0,5.6464417E2,6.248108E1,2.3421934E3,6.9125146E2,1.4607266E3,0E0,6.356611E3,1.0921387E1,0E0,0E0,2.607666E1,3.57482E1,3.0180164E2,2.4503114E2,3.999768E1,1.8238303E2,3.1455127E2,4.5226855E2,0E0,0E0,2.6760352E2,6.556211E2,1.3138379E2,2.7041016E0,0E0,2.3725732E2,0E0,0E0,0E0,0E0,0E0,0E0,0E0,0E0,0E0,0E0,0E0,0E0,0E0,0E0,0E0,0E0,0E0,0E0,0E0,0E0,0E0,0E0,0E0,0E0,0E0,0E0],"parents":[2147483647,0,0,1,1,2,2,3,3,4,4,5,5,6,6,7,7,8,8,11,11,12,12,13,13,14,14,15,15,17,17,18,18,19,19,20,20,21,21,23,23,24,24,27,27,28,28,29,29,30,30,31,31,32,32,33,33,34,34,37,37,38,38,39,39,40,40,42,42],"right_children":[2,4,6,8,10,12,14,16,18,-1,-1,20,22,24,26,28,-1,30,32,34,36,38,-1,40,42,-1,-1,44,46,48,50,52,54,56,58,-1,-1,60,62,64,66,-1,68,-1,-1,-1,-1,-1,-1,-1,-1,-1,-1,-1,-1,-1,-1,-1,-1,-1,-1,-1,-1,-1,-1,-1,-1,-1,-1],"split_conditions":[-5.0922227E-1,-5.4632795E-1,7.202575E-1,-1.0678194E0,-5.462535E-1,-2.4687631E-2,2.0239487E0,-1.0678939E0,-6.207629E-1,-3.3849126E-1,-3.720805E-2,-2.4836682E-2,7.201829E-1,1.4653516E0,2.4533463E0,-1.0681174E0,-3.383232E-1,-9.189495E-1,-5.835827E-1,-2.5283718E-2,-2.4762098E-2,3.4711426E-1,2.6113546E-1,1.1671648E0,1.4655005E0,8.6045915E-1,-3.3750162E-1,-1.1424778E0,-1.0680429E0,-9.7870606E-1,-6.9564486E-1,-5.838807E-1,-5.835082E-1,-3.228743E-1,-2.5060201E-2,-3.8488917E-2,-3.384695E-1,1.2343711E-1,3.6931816E-1,7.204064E-1,1.4652025E0,-3.384773E-1,1.8532475E0,-2.7262613E-1,-3.141374E-1,5.477689E-1,1.92128E-1,4.8697997E-2,4.6577272E-1,-4.8455924E-2,6.577952E-2,5.528252E-1,8.5583264E-1,-3.2241613E-1,6.373298E-1,3.4526804E-1,2.0088255E-1,5.610136E-1,8.602782E-1,4.0470523E-1,5.711238E-1,8.4220636E-1,6.201231E-1,-3.384629E-1,-1.6020307E-1,6.981901E-1,5.607734E-1,7.5296503E-1,-3.3756968E-1],"split_indices":[1,1,1,1,1,1,1,1,1,0,0,1,1,1,1,1,0,1,1,1,1,1,0,1,1,0,0,1,1,1,1,1,1,1,1,0,0,1,1,1,1,0,1,0,0,0,0,0,0,0,0,0,0,0,0,0,0,0,0,0,0,0,0,0,0,0,0,0,0],"split_type":[0,0,0,0,0,0,0,0,0,0,0,0,0,0,0,0,0,0,0,0,0,0,0,0,0,0,0,0,0,0,0,0,0,0,0,0,0,0,0,0,0,0,0,0,0,0,0,0,0,0,0,0,0,0,0,0,0,0,0,0,0,0,0,0,0,0,0,0,0],"sum_hessian":[5.9491E4,2.3502E4,3.5989E4,1.6065E4,7.437E3,2.2941E4,1.3048E4,7.388E3,8.677E3,7.409E3,2.8E1,1.3763E4,9.178E3,1.1865E4,1.183E3,5.805E3,1.583E3,8.311E3,3.66E2,7.939E3,5.824E3,8.381E3,7.97E2,5.822E3,6.043E3,8.57E2,3.26E2,5.693E3,1.12E2,6.34E2,7.677E3,2.16E2,1.5E2,5.965E3,1.974E3,8.02E2,5.022E3,3.511E3,4.87E3,4.979E3,8.43E2,5.676E3,3.67E2,2.594E3,3.099E3,4E1,7.2E1,2.78E2,3.56E2,5.167E3,2.51E3,6.4E1,1.52E2,2E1,1.3E2,3.862E3,2.103E3,1.248E3,7.26E2,1.769E3,1.742E3,2.661E3,2.209E3,4.571E3,4.08E2,3E1,8.13E2,1.8E1,3.49E2],"tree_param":{"num_deleted":"0","num_feature":"4","num_nodes":"69","size_leaf_vector":"1"}},{"base_weights":[1.2350529E-4,-4.3135604E-1,2.831487E-1,-2.6746452E-1,-7.823292E-1,7.028319E-1,-4.5270967E-1,-6.886601E-1,9.119897E-2,-2.3695756E-1,-1.6738681E-1,2.3122208E-1,1.406702E0,-6.213599E-1,1.2378786E0,-6.609936E-1,-2.368903E-1,2.662556E-2,1.5534415E0,2.6805905E-1,-4.2369577E-1,9.149983E-1,-6.934709E-1,1.4824175E0,1.8289302E-1,-4.5461977E-1,-7.8190035E-1,6.026222E-1,-2.3656078E-1,-6.890758E-1,7.59902E-1,6.617411E-1,-2.5904393E-2,1.8008574E0,1.187596E0,-2.6430536E-2,1.540319E-1,6.965477E-1,1.5674534E0,-2.6956635E-2,-2.3694888E-1,1.2920837E0,6.750203E-1,-7.5584495E-1,1.3232901E0,-2.3695195E-1,-6.5729624E-1,-2.5011292E-1,-1.9997838E-1,2.8143796E-1,-9.051792E-2,1.2432122E-1,5.5153376E-1,-3.49292E-2,4.51911E-2,3.8952914E-1,6.00761E-1,-2.3029722E-1,4.4759038E-1,2.4673589E-1,1.406464E-1,3.928443E-1,6.025497E-1,4.48432E-1,-2.9930043E-1,-2.3694623E-1,-1.1225965E-1,4.9548978E-1,3.9274803E-1,5.389645E-1,-2.365881E-1],"categories":[],"categories_nodes":[],"categories_segments":[],"categories_sizes":[],"default_left":[0,0,0,0,0,0,0,0,0,0,0,0,0,0,0,0,0,0,0,0,0,0,0,0,0,0,0,0,0,0,0,0,0,0,0,0,0,0,0,0,0,0,0,0,0,0,0,0,0,0,0,0,0,0,0,0,0,0,0,0,0,0,0,0,0,0,0,0,0,0,0],"id":1,"left_children":[1,3,5,7,9,11,13,15,17,-1,19,21,23,25,27,29,-1,31,33,35,-1,37,39,41,-1,43,45,-1,-1,47,49,51,53,55,57,-1,-1,59,61,-1,-1,63,-1,65,67,-1,69,-1,-1,-1,-1,-1,-1,-1,-1,-1,-1,-1,-1,-1,-1,-1,-1,-1,-1,-1,-1,-1,-1,-1,-1],"loss_changes":[7.2652607E3,1.3553433E3,1.1095561E4,2.4271128E3,3.4598145E1,7.594407E3,3.7212754E3,2.0119873E1,8.193527E2,0E0,5.0251842E1,8.663545E3,5.530449E2,3.172798E2,1.8510939E3,2.3219409E2,0E0,2.7732697E2,3.1080688E1,6.0754867E0,0E0,1.1216104E3,3.3873193E2,1.2217852E3,0E0,3.1195146E3,5.460205E0,0E0,0E0,1.7958496E1,2.1663582E1,1.840502E2,1.2272452E2,1.9388184E1,9.100906E1,0E0,0E0,1.6886499E2,2.2208057E2,0E0,0E0,3.119838E3,0E0,6.4278564E1,1.753418E0,0E0,1.20010376E2,0E0,0E0,0E0,0E0,0E0,0E0,0E0,0E0,0E0,0E0,0E0,0E0,0E0,0E0,0E0,0E0,0E0,0E0,0E0,0E0,0E0,0E0,0E0,0E0],"parents":[2147483647,0,0,1,1,2,2,3,3,4,4,5,5,6,6,7,7,8,8,10,10,11,11,12,12,13,13,14,14,15,15,17,17,18,18,19,19,21,21,22,22,23,23,25,25,26,26,29,29,30,30,31,31,32,32,33,33,34,34,37,37,38,38,41,41,43,43,44,44,46,46],"right_children":[2,4,6,8,10,12,14,16,18,-1,20,22,24,26,28,30,-1,32,34,36,-1,38,40,42,-1,44,46,-1,-1,48,50,52,54,56,58,-1,-1,60,62,-1,-1,64,-1,66,68,-1,70,-1,-1,-1,-1,-1,-1,-1,-1,-1,-1,-1,-1,-1,-1,-1,-1,-1,-1,-1,-1,-1,-1,-1,-1],"split_conditions":[-4.7211665E-1,-5.4632795E-1,7.202575E-1,-1.0678194E0,-5.462535E-1,-2.4687631E-2,2.0239487E0,-1.0678939E0,-6.207629E-1,-2.3695756E-1,-5.0907326E-1,-2.4836682E-2,7.201829E-1,1.4653516E0,2.4533463E0,-1.0681174E0,-2.368903E-1,-9.189495E-1,-5.835827E-1,-5.0922227E-1,-4.2369577E-1,-2.5283718E-2,-2.4762098E-2,7.20034E-1,1.8289302E-1,1.1671648E0,1.4655005E0,6.026222E-1,-2.3656078E-1,-1.291571E0,-1.0679684E0,-9.1917306E-1,-7.3275054E-1,-5.838807E-1,-5.835082E-1,-2.6430536E-2,1.540319E-1,-3.228743E-1,-2.5060201E-2,-2.6956635E-2,-2.3694888E-1,3.6931816E-1,6.750203E-1,7.204064E-1,1.4652025E0,-2.3695195E-1,1.8532475E0,-2.5011292E-1,-1.9997838E-1,2.8143796E-1,-9.051792E-2,1.2432122E-1,5.5153376E-1,-3.49292E-2,4.51911E-2,3.8952914E-1,6.00761E-1,-2.3029722E-1,4.4759038E-1,2.4673589E-1,1.406464E-1,3.928443E-1,6.025497E-1,4.48432E-1,-2.9930043E-1,-2.3694623E-1,-1.1225965E-1,4.9548978E-1,3.9274803E-1,5.389645E-1,-2.365881E-1],"split_indices":[1,1,1,1,1,1,1,1,1,0,1,1,1,1,1,1,0,1,1,1,0,1,1,1,0,1,1,0,0,1,1,1,1,1,1,0,0,1,1,0,0,1,0,1,1,0,1,0,0,0,0,0,0,0,0,0,0,0,0,0,0,0,0,0,0,0,0,0,0,0,0],"split_type":[0,0,0,0,0,0,0,0,0,0,0,0,0,0,0,0,0,0,0,0,0,0,0,0,0,0,0,0,0,0,0,0,0,0,0,0,0,0,0,0,0,0,0,0,0,0,0,0,0,0,0,0,0,0,0,0,0,0,0,0,0,0,0,0,0,0,0,0,0,0,0],"sum_hessian":[5.9491E4,2.3565E4,3.5926E4,1.6065E4,7.5E3,2.2878E4,1.3048E4,7.388E3,8.677E3,7.409E3,9.1E1,1.37E4,9.178E3,1.1865E4,1.183E3,5.805E3,1.583E3,8.311E3,3.66E2,6.8E1,2.3E1,7.876E3,5.824E3,8.381E3,7.97E2,5.822E3,6.043E3,8.57E2,3.26E2,5.693E3,1.12E2,6.34E2,7.677E3,2.16E2,1.5E2,2.8E1,4E1,5.902E3,1.974E3,8.02E2,5.022E3,6.718E3,1.663E3,4.979E3,8.43E2,5.676E3,3.67E2,7.61E2,4.932E3,9.6E1,1.6E1,5.25E2,1.09E2,5.075E3,2.602E3,6.4E1,1.52E2,2E1,1.3E2,3.799E3,2.103E3,1.248E3,7.26E2,6.172E3,5.46E2,4.571E3,4.08E2,3E1,8.13E2,1.8E1,3.49E2],"tree_param":{"num_deleted":"0","num_feature":"4","num_nodes":"71","size_leaf_vector":"1"}},{"base_weights":[1.5303853E-4,-3.0191252E-1,1.9829029E-1,-1.8713814E-1,-5.4770154E-1,4.920753E-1,-3.168224E-1,-4.805539E-1,6.681614E-2,-1.658799E-1,-1.2038919E-1,2.0021081E-1,1.1013399E0,-4.34901E-1,8.6682415E-1,-4.21629E-1,-5.11918E-1,2.1244176E-2,1.0906996E0,1.894906E-1,-3.0188322E-1,6.4067435E-1,-2.5669354E-1,1.1825495E0,1.2809387E-1,-3.1814128E-1,-5.473194E-1,4.2204624E-1,-1.6580956E-1,-5.296126E-1,6.9635713E-1,-5.4760224E-1,-4.5456856E-1,2.3215578E-1,-1.22073546E-1,1.2651638E0,8.327562E-1,-1.8774774E-2,1.0894937E-1,4.8764905E-1,1.0977213E0,-4.8547494E-1,4.963621E-1,1.0502315E0,4.726359E-1,-5.291616E-1,9.2735535E-1,-1.6587889E-1,-4.5928568E-1,-1.4012735E-1,-1.9650492E-1,1.2870963E-1,9.576425E-1,-1.5275918E-1,-1.7516807E-1,7.1384154E-2,-1.6199286E-1,1.792425E-2,1.13748804E-1,-3.1314406E-1,1.9694135E-2,2.744682E-1,4.2171064E-1,-1.6449803E-1,3.1433833E-1,1.0495352E-1,1.8846333E-1,2.750854E-1,4.220334E-1,-1.887974E-2,-1.6587839E-1,3.028303E-1,-5.4949534E-1,3.8017386E-1,-2.0967443E-1,-1.6587791E-1,-7.866412E-2,3.516379E-1,2.750683E-1,3.857851E-1,-1.6581446E-1],"categories":[],"categories_nodes":[],"categories_segments":[],"categories_sizes":[],"default_left":[0,0,0,0,0,0,0,0,0,0,0,0,0,0,0,0,0,0,0,0,0,0,0,0,0,0,0,0,0,0,0,0,0,0,0,0,0,0,0,0,0,0,0,0,0,0,0,0,0,0,0,0,0,0,0,0,0,0,0,0,0,0,0,0,0,0,0,0,0,0,0,0,0,0,0,0,0,0,0,0,0],"id":2,"left_children":[1,3,5,7,9,11,13,15,17,-1,19,21,23,25,27,29,31,33,35,37,-1,39,41,43,-1,45,47,-1,-1,49,51,53,55,57,59,61,63,-1,-1,65,67,69,71,73,-1,75,77,-1,79,-1,-1,-1,-1,-1,-1,-1,-1,-1,-1,-1,-1,-1,-1,-1,-1,-1,-1,-1,-1,-1,-1,-1,-1,-1,-1,-1,-1,-1,-1,-1,-1],"loss_changes":[3.560682E3,6.647012E2,5.437074E3,1.197177E3,1.670166E1,4.068185E3,1.8241486E3,1.3560059E1,4.0186267E2,0E0,2.5446415E1,3.1134978E3,4.052998E2,1.5557837E2,9.0835785E2,3.1364807E2,9.696899E0,2.4931348E2,1.5462097E1,3.0434465E0,0E0,5.503801E2,1.3085743E3,3.4214355E2,0E0,1.5309211E3,2.731079E0,0E0,0E0,1.825232E1,1.5141599E2,3.871521E0,1.1073175E2,8.4554276E1,8.49817E2,9.396027E0,4.541931E1,0E0,0E0,1.1412134E2,1.0904956E2,1.659878E2,2.1160063E3,1.8798589E3,0E0,3.1447876E1,1.0863647E0,0E0,6.0715324E1,0E0,0E0,0E0,0E0,0E0,0E0,0E0,0E0,0E0,0E0,0E0,0E0,0E0,0E0,0E0,0E0,0E0,0E0,0E0,0E0,0E0,0E0,0E0,0E0,0E0,0E0,0E0,0E0,0E0,0E0,0E0,0E0],"parents":[2147483647,0,0,1,1,2,2,3,3,4,4,5,5,6,6,7,7,8,8,10,10,11,11,12,12,13,13,14,14,15,15,16,16,17,17,18,18,19,19,21,21,22,22,23,23,25,25,26,26,29,29,30,30,31,31,32,32,33,33,34,34,35,35,36,36,39,39,40,40,41,41,42,42,43,43,45,45,46,46,48,48],"right_children":[2,4,6,8,10,12,14,16,18,-1,20,22,24,26,28,30,32,34,36,38,-1,40,42,44,-1,46,48,-1,-1,50,52,54,56,58,60,62,64,-1,-1,66,68,70,72,74,-1,76,78,-1,80,-1,-1,-1,-1,-1,-1,-1,-1,-1,-1,-1,-1,-1,-1,-1,-1,-1,-1,-1,-1,-1,-1,-1,-1,-1,-1,-1,-1,-1,-1,-1,-1],"split_conditions":[-4.7211665E-1,-5.4632795E-1,7.202575E-1,-1.0383136E0,-5.462535E-1,1.2343711E-1,2.0239487E0,-1.1424778E0,-6.207629E-1,-1.658799E-1,-5.0907326E-1,-2.4836682E-2,7.201829E-1,1.4653516E0,2.4533463E0,-1.1871834E0,-1.1127485E0,-7.698562E-1,-5.835827E-1,-5.0922227E-1,-3.0188322E-1,-2.5283718E-2,-2.4687631E-2,7.20034E-1,1.2809387E-1,1.1671648E0,1.4655005E0,4.2204624E-1,-1.6580956E-1,-1.2169126E0,-1.1427013E0,-1.1423287E0,-1.0679684E0,-8.5949105E-1,-7.697817E-1,-5.838807E-1,-5.835082E-1,-1.8774774E-2,1.0894937E-1,-3.2309783E-1,-2.5060201E-2,-2.4762098E-2,4.9747307E-2,3.6931816E-1,4.726359E-1,7.204064E-1,1.4652025E0,-1.6587889E-1,1.8532475E0,-1.4012735E-1,-1.9650492E-1,1.2870963E-1,9.576425E-1,-1.5275918E-1,-1.7516807E-1,7.1384154E-2,-1.6199286E-1,1.792425E-2,1.13748804E-1,-3.1314406E-1,1.9694135E-2,2.744682E-1,4.2171064E-1,-1.6449803E-1,3.1433833E-1,1.0495352E-1,1.8846333E-1,2.750854E-1,4.220334E-1,-1.887974E-2,-1.6587839E-1,3.028303E-1,-5.4949534E-1,3.8017386E-1,-2.0967443E-1,-1.6587791E-1,-7.866412E-2,3.516379E-1,2.750683E-1,3.857851E-1,-1.6581446E-1],"split_indices":[1,1,1,1,1,1,1,1,1,0,1,1,1,1,1,1,1,1,1,1,0,1,1,1,0,1,1,0,0,1,1,1,1,1,1,1,1,0,0,1,1,1,1,1,0,1,1,0,1,0,0,0,0,0,0,0,0,0,0,0,0,0,0,0,0,0,0,0,0,0,0,0,0,0,0,0,0,0,0,0,0],"split_type":[0,0,0,0,0,0,0,0,0,0,0,0,0,0,0,0,0,0,0,0,0,0,0,0,0,0,0,0,0,0,0,0,0,0,0,0,0,0,0,0,0,0,0,0,0,0,0,0,0,0,0,0,0,0,0,0,0,0,0,0,0,0,0,0,0,0,0,0,0,0,0,0,0,0,0,0,0,0,0,0,0],"sum_hessian":[5.9491E4,2.3565E4,3.5926E4,1.6065E4,7.5E3,2.2878E4,1.3048E4,7.453E3,8.612E3,7.409E3,9.1E1,1.5469E4,7.409E3,1.1865E4,1.183E3,2.594E3,4.859E3,8.246E3,3.66E2,6.8E1,2.3E1,7.876E3,7.593E3,6.612E3,7.97E2,5.822E3,6.043E3,8.57E2,3.26E2,2.366E3,2.28E2,2.99E3,1.869E3,3.336E3,4.91E3,2.16E2,1.5E2,2.8E1,4E1,5.902E3,1.974E3,5.824E3,1.769E3,4.949E3,1.663E3,4.979E3,8.43E2,5.676E3,3.67E2,1.582E3,7.84E2,2.07E2,2.1E1,1.46E3,1.53E3,2.05E2,1.664E3,1.536E3,1.8E3,8.3E2,4.08E3,6.4E1,1.52E2,2E1,1.3E2,2.982E3,2.92E3,1.248E3,7.26E2,8.02E2,5.022E3,1.45E3,3.19E2,4.403E3,5.46E2,4.571E3,4.08E2,3E1,8.13E2,1.8E1,3.49E2],"tree_param":{"num_deleted":"0","num_feature":"4","num_nodes":"81","size_leaf_vector":"1"}},{"base_weights":[1.5185826E-4,-2.1131167E-1,1.388595E-1,-1.3093348E-1,-3.8344133E-1,3.4451082E-1,-2.217226E-1,-3.3807504E-1,4.5455083E-2,-1.16122626E-1,-8.657365E-2,1.4018373E-1,7.71042E-1,-3.0439392E-1,6.0699314E-1,-4.4398162E-1,-3.258483E-1,1.3644427E-2,7.657949E-1,1.3395025E-1,-2.1509178E-1,4.4859782E-1,-1.7974225E-1,8.278818E-1,8.9713834E-2,-2.2263323E-1,-3.8311464E-1,2.9557988E-1,-1.1621881E-1,-1.3933799E-1,-4.1867948E-1,7.222382E-1,-3.3553275E-1,8.396332E-2,-2.6861483E-1,8.683074E-1,1.4020969E-1,-1.3336571E-2,7.706173E-2,3.4140405E-1,7.6875794E-1,-3.3986416E-1,3.4731415E-1,5.048192E-1,9.4331396E-1,-3.7046218E-1,6.498913E-1,-1.1612399E-1,-3.2090217E-1,1.5089223E-1,-1.3926005E-1,4.1745248E-1,1.4212433E-1,-7.963055E-2,-1.08419016E-1,-4.7545424E-3,2.5040424E-1,-7.768895E-2,-3.5551652E-1,2.3373373E-1,4.2941657E-1,1.3587046E-1,4.196042E-2,1.9262582E-1,2.9559758E-1,-1.32228965E-2,-1.1612476E-1,2.0493601E-1,-4.2810604E-1,3.9631978E-1,1.3708936E-1,3.41151E-1,2.1281482E-1,-1.05871715E-1,-2.3207231E-1,9.134328E-2,1.9660524E-1,2.761409E-1,-1.1621222E-1],"categories":[],"categories_nodes":[],"categories_segments":[],"categories_sizes":[],"default_left":[0,0,0,0,0,0,0,0,0,0,0,0,0,0,0,0,0,0,0,0,0,0,0,0,0,0,0,0,0,0,0,0,0,0,0,0,0,0,0,0,0,0,0,0,0,0,0,0,0,0,0,0,0,0,0,0,0,0,0,0,0,0,0,0,0,0,0,0,0,0,0,0,0,0,0,0,0,0,0],"id":3,"left_children":[1,3,5,7,9,11,13,15,17,-1,19,21,23,25,27,29,31,33,35,37,-1,39,41,43,-1,45,47,-1,-1,-1,49,51,53,55,57,59,-1,-1,-1,61,63,65,67,69,71,73,75,-1,77,-1,-1,-1,-1,-1,-1,-1,-1,-1,-1,-1,-1,-1,-1,-1,-1,-1,-1,-1,-1,-1,-1,-1,-1,-1,-1,-1,-1,-1,-1],"loss_changes":[1.7450253E3,3.2599658E2,2.664214E3,5.8702527E2,8.058838E0,1.9938396E3,8.941849E2,9.42334E0,1.9884142E2,0E0,1.2885697E1,1.5265005E3,1.9854834E2,7.6287476E1,4.4574402E2,2.003479E-1,6.7517334E1,1.6500044E2,1.0821732E1,1.5245885E0,0E0,2.7006958E2,6.4100055E2,2.4613525E2,0E0,7.513168E2,1.3667603E0,0E0,0E0,0E0,1.4959442E1,9.485516E0,1.1811951E1,4.9867535E2,1.4358467E1,1.2545731E1,0E0,0E0,0E0,1.3258148E2,5.3547485E1,8.133844E1,1.0555972E3,6.748001E1,2.2008789E2,3.497162E1,1.3920288E0,0E0,3.072258E1,0E0,0E0,0E0,0E0,0E0,0E0,0E0,0E0,0E0,0E0,0E0,0E0,0E0,0E0,0E0,0E0,0E0,0E0,0E0,0E0,0E0,0E0,0E0,0E0,0E0,0E0,0E0,0E0,0E0,0E0],"parents":[2147483647,0,0,1,1,2,2,3,3,4,4,5,5,6,6,7,7,8,8,10,10,11,11,12,12,13,13,14,14,15,15,16,16,17,17,18,18,19,19,21,21,22,22,23,23,25,25,26,26,30,30,31,31,32,32,33,33,34,34,35,35,39,39,40,40,41,41,42,42,43,43,44,44,45,45,46,46,48,48],"right_children":[2,4,6,8,10,12,14,16,18,-1,20,22,24,26,28,30,32,34,36,38,-1,40,42,44,-1,46,48,-1,-1,-1,50,52,54,56,58,60,-1,-1,-1,62,64,66,68,70,72,74,76,-1,78,-1,-1,-1,-1,-1,-1,-1,-1,-1,-1,-1,-1,-1,-1,-1,-1,-1,-1,-1,-1,-1,-1,-1,-1,-1,-1,-1,-1,-1,-1],"split_conditions":[-4.7211665E-1,-5.4632795E-1,7.202575E-1,-1.0678194E0,-5.462535E-1,1.2343711E-1,2.0239487E0,-1.291571E0,-6.207629E-1,-1.16122626E-1,-5.0907326E-1,-2.4836682E-2,7.201829E-1,1.4653516E0,2.4533463E0,-1.366006E0,-1.291422E0,-6.209119E-1,-5.614534E-1,-5.0922227E-1,-2.1509178E-1,-2.5283718E-2,-2.4687631E-2,3.4711426E-1,8.9713834E-2,1.1671648E0,1.4655005E0,2.9557988E-1,-1.1621881E-1,-1.3933799E-1,-1.3659315E0,-1.2914965E0,-1.1424778E0,-6.9527227E-1,-6.208374E-1,-5.835082E-1,1.4020969E-1,-1.3336571E-2,7.706173E-2,-3.228743E-1,-2.5060201E-2,-2.4762098E-2,5.6155123E-2,2.73052E-1,3.6931816E-1,1.1458552E0,1.4651281E0,-1.1612399E-1,1.8532475E0,1.5089223E-1,-1.3926005E-1,4.1745248E-1,1.4212433E-1,-7.963055E-2,-1.08419016E-1,-4.7545424E-3,2.5040424E-1,-7.768895E-2,-3.5551652E-1,2.3373373E-1,4.2941657E-1,1.3587046E-1,4.196042E-2,1.9262582E-1,2.9559758E-1,-1.32228965E-2,-1.1612476E-1,2.0493601E-1,-4.2810604E-1,3.9631978E-1,1.3708936E-1,3.41151E-1,2.1281482E-1,-1.05871715E-1,-2.3207231E-1,9.134328E-2,1.9660524E-1,2.761409E-1,-1.1621222E-1],"split_indices":[1,1,1,1,1,1,1,1,1,0,1,1,1,1,1,1,1,1,1,1,0,1,1,1,0,1,1,0,0,0,1,1,1,1,1,1,0,0,0,1,1,1,1,1,1,1,1,0,1,0,0,0,0,0,0,0,0,0,0,0,0,0,0,0,0,0,0,0,0,0,0,0,0,0,0,0,0,0,0],"split_type":[0,0,0,0,0,0,0,0,0,0,0,0,0,0,0,0,0,0,0,0,0,0,0,0,0,0,0,0,0,0,0,0,0,0,0,0,0,0,0,0,0,0,0,0,0,0,0,0,0,0,0,0,0,0,0,0,0,0,0,0,0,0,0,0,0,0,0,0,0,0,0,0,0,0,0,0,0,0,0],"sum_hessian":[5.9491E4,2.3565E4,3.5926E4,1.6065E4,7.5E3,2.2878E4,1.3048E4,7.388E3,8.677E3,7.409E3,9.1E1,1.5469E4,7.409E3,1.1865E4,1.183E3,7.61E2,6.627E3,8.311E3,3.66E2,6.8E1,2.3E1,7.876E3,7.593E3,6.612E3,7.97E2,5.822E3,6.043E3,8.57E2,3.26E2,4.11E2,3.5E2,6E1,6.567E3,6.654E3,1.657E3,2.71E2,9.5E1,2.8E1,4E1,5.902E3,1.974E3,5.824E3,1.769E3,1.742E3,4.87E3,4.979E3,8.43E2,5.676E3,3.67E2,1.6E1,3.34E2,1.5E1,4.5E1,1.773E3,4.794E3,5.874E3,7.8E2,1.641E3,1.6E1,2.36E2,3.5E1,3.799E3,2.103E3,1.248E3,7.26E2,8.02E2,5.022E3,1.488E3,2.81E2,9.5E1,1.647E3,2.661E3,2.209E3,4.773E3,2.06E2,1.4E1,8.29E2,1.8E1,3.49E2],"tree_param":{"num_deleted":"0","num_feature":"4","num_nodes":"79","size_leaf_vector":"1"}},{"base_weights":[1.442186E-4,-1.4789304E-1,9.724796E-2,-9.159993E-2,-2.684446E-1,2.4122272E-1,-1.5519254E-1,-2.35731E-1,3.3146925E-2,-8.129054E-2,-6.2246777E-2,9.812985E-2,5.4070437E-1,-2.1307625E-1,4.2504665E-1,-2.9948008E-1,-2.1963371E-1,5.384598E-1,-2.6638003E-3,9.46888E-2,-1.532529E-1,3.14103E-1,-1.2552188E-1,5.8067477E-1,6.283341E-2,-1.5585187E-1,-2.6817295E-1,2.0700924E-1,-8.14598E-2,-2.692203E-1,-1.30349E-1,7.264401E-1,-2.2760276E-1,6.5329686E-2,8.205645E-1,-2.8518323E-2,5.3824544E-1,-9.473538E-3,5.4507095E-2,1.0910179E-1,4.3896607E-1,-2.3792711E-1,2.4177256E-1,4.7616056E-1,2.6712415E-1,-2.593914E-1,4.552651E-1,-8.129291E-2,-2.2419688E-1,-8.469398E-2,1.607132E-1,1.6664684E-1,-7.094975E-2,4.92301E-1,-8.199588E-2,5.5677134E-1,1.9018687E-1,2.7243143E-2,-2.8731037E-2,1.9684987E-1,1.0956558E-1,4.1486278E-1,2.5144618E-2,3.2251954E-1,9.3379274E-2,-9.260957E-3,-8.129426E-2,1.5060541E-1,-2.6788086E-1,1.8684758E-1,-2.1061486E-1,-8.437085E-2,-4.369783E-3,2.0673187E-1,1.3374011E-1,1.976588E-1,-8.144815E-2],"categories":[],"categories_nodes":[],"categories_segments":[],"categories_sizes":[],"default_left":[0,0,0,0,0,0,0,0,0,0,0,0,0,0,0,0,0,0,0,0,0,0,0,0,0,0,0,0,0,0,0,0,0,0,0,0,0,0,0,0,0,0,0,0,0,0,0,0,0,0,0,0,0,0,0,0,0,0,0,0,0,0,0,0,0,0,0,0,0,0,0,0,0,0,0,0,0],"id":4,"left_children":[1,3,5,7,9,11,13,15,17,-1,19,21,23,25,27,29,31,33,35,37,-1,39,41,43,-1,45,47,-1,-1,49,-1,-1,51,53,55,57,59,-1,-1,61,63,65,67,69,-1,71,73,-1,75,-1,-1,-1,-1,-1,-1,-1,-1,-1,-1,-1,-1,-1,-1,-1,-1,-1,-1,-1,-1,-1,-1,-1,-1,-1,-1,-1,-1],"loss_changes":[8.552102E2,1.5989954E2,1.3058065E3,2.8887283E2,3.8867798E0,9.803965E2,4.383594E2,7.5834656E0,1.5585901E2,0E0,6.5252357E0,7.4791125E2,9.781885E1,3.737024E1,2.1873303E2,6.011383E0,1.2588623E2,7.602557E1,1.1251029E2,7.6373297E-1,0E0,2.0158026E2,3.141187E2,2.1323218E2,0E0,3.6856708E2,6.844177E-1,0E0,0E0,1.3093048E1,0E0,0E0,4.1499603E1,1.14639084E2,6.779692E1,6.1625237E1,7.2484207E0,0E0,0E0,9.596402E1,3.9729114E2,3.9858063E1,5.269732E2,8.535598E2,0E0,2.662967E1,1.5607758E0,0E0,1.5548777E1,0E0,0E0,0E0,0E0,0E0,0E0,0E0,0E0,0E0,0E0,0E0,0E0,0E0,0E0,0E0,0E0,0E0,0E0,0E0,0E0,0E0,0E0,0E0,0E0,0E0,0E0,0E0,0E0],"parents":[2147483647,0,0,1,1,2,2,3,3,4,4,5,5,6,6,7,7,8,8,10,10,11,11,12,12,13,13,14,14,15,15,16,16,17,17,18,18,19,19,21,21,22,22,23,23,25,25,26,26,29,29,32,32,33,33,34,34,35,35,36,36,39,39,40,40,41,41,42,42,43,43,45,45,46,46,48,48],"right_children":[2,4,6,8,10,12,14,16,18,-1,20,22,24,26,28,30,32,34,36,38,-1,40,42,44,-1,46,48,-1,-1,50,-1,-1,52,54,56,58,60,-1,-1,62,64,66,68,70,-1,72,74,-1,76,-1,-1,-1,-1,-1,-1,-1,-1,-1,-1,-1,-1,-1,-1,-1,-1,-1,-1,-1,-1,-1,-1,-1,-1,-1,-1,-1,-1],"split_conditions":[-4.7211665E-1,-5.4632795E-1,7.202575E-1,-1.0383136E0,-5.462535E-1,1.6121332E-1,2.0239487E0,-1.2171361E0,-9.189495E-1,-8.129054E-2,-5.0907326E-1,-2.4836682E-2,7.201829E-1,1.4653516E0,2.4533463E0,-1.2187009E0,-1.2169871E0,-9.7870606E-1,-6.207629E-1,-5.0922227E-1,-1.532529E-1,-3.2309783E-1,-2.4687631E-2,7.20034E-1,6.283341E-2,1.1671648E0,1.4655005E0,2.0700924E-1,-8.14598E-2,-1.2467909E0,-1.30349E-1,7.264401E-1,-1.2169126E0,-1.0381646E0,-9.5627874E-1,-7.698562E-1,-5.835827E-1,-9.473538E-3,5.4507095E-2,-4.7174406E-1,-3.228743E-1,-2.4762098E-2,4.9747307E-2,3.6931816E-1,2.6712415E-1,7.204064E-1,1.4652025E0,-8.129291E-2,1.8532475E0,-8.469398E-2,1.607132E-1,1.6664684E-1,-7.094975E-2,4.92301E-1,-8.199588E-2,5.5677134E-1,1.9018687E-1,2.7243143E-2,-2.8731037E-2,1.9684987E-1,1.0956558E-1,4.1486278E-1,2.5144618E-2,3.2251954E-1,9.3379274E-2,-9.260957E-3,-8.129426E-2,1.5060541E-1,-2.6788086E-1,1.8684758E-1,-2.1061486E-1,-8.437085E-2,-4.369783E-3,2.0673187E-1,1.3374011E-1,1.976588E-1,-8.144815E-2],"split_indices":[1,1,1,1,1,1,1,1,1,0,1,1,1,1,1,1,1,1,1,1,0,1,1,1,0,1,1,0,0,1,0,0,1,1,1,1,1,0,0,1,1,1,1,1,0,1,1,0,1,0,0,0,0,0,0,0,0,0,0,0,0,0,0,0,0,0,0,0,0,0,0,0,0,0,0,0,0],"split_type":[0,0,0,0,0,0,0,0,0,0,0,0,0,0,0,0,0,0,0,0,0,0,0,0,0,0,0,0,0,0,0,0,0,0,0,0,0,0,0,0,0,0,0,0,0,0,0,0,0,0,0,0,0,0,0,0,0,0,0,0,0,0,0,0,0,0,0,0,0,0,0,0,0,0,0,0,0],"sum_hessian":[5.9491E4,2.3565E4,3.5926E4,1.6065E4,7.5E3,2.2878E4,1.3048E4,7.453E3,8.612E3,7.409E3,9.1E1,1.5482E4,7.396E3,1.1865E4,1.183E3,1.499E3,5.954E3,5.69E2,8.043E3,6.8E1,2.3E1,7.876E3,7.606E3,6.599E3,7.97E2,5.822E3,6.043E3,8.57E2,3.26E2,1.227E3,2.72E2,1.7E1,5.937E3,2.13E2,3.56E2,7.677E3,3.66E2,2.8E1,4E1,2.982E3,4.894E3,5.824E3,1.782E3,4.936E3,1.663E3,4.979E3,8.43E2,5.676E3,3.67E2,1.208E3,1.9E1,6.6E1,5.871E3,3.7E1,1.76E2,5.3E1,3.03E2,2.767E3,4.91E3,2.16E2,1.5E2,5.7E1,2.925E3,8.17E2,4.077E3,8.02E2,5.022E3,1.45E3,3.32E2,4.39E3,5.46E2,4.571E3,4.08E2,3E1,8.13E2,1.8E1,3.49E2],"tree_param":{"num_deleted":"0","num_feature":"4","num_nodes":"77","size_leaf_vector":"1"}},{"base_weights":[1.5822827E-4,-1.034385E-1,6.811158E-2,-6.398111E-2,-1.8793643E-1,1.6889761E-1,-1.0860322E-1,-1.6579828E-1,2.2719864E-2,-5.690665E-2,-4.4748984E-2,7.8817785E-2,4.4241294E-1,-1.4912924E-1,2.9763862E-1,-2.1086833E-1,-1.4452681E-1,3.3363324E-1,-1.8267191E-3,6.6934876E-2,-1.0919266E-1,2.1998078E-1,-4.0293142E-2,6.093697E-1,2.944644E-1,-1.0905309E-1,-1.8771532E-1,1.4497884E-1,-5.70966E-2,-1.62383E-1,-9.251198E-2,6.4211655E-1,-1.8206525E-1,1.7473598E-1,1.090418E0,-2.7031308E-1,3.4897402E-2,-6.7294715E-3,3.855382E-2,1.4464226E-1,4.450457E-1,-1.6656451E-1,1.691519E-1,5.442692E-1,2.0167036E-1,-5.127306E-1,4.701634E-1,-1.8100381E-1,3.2399628E-1,-5.690935E-2,-1.56622E-1,-6.290167E-2,2.0520009E-1,1.3523926E-1,7.265292E-1,-6.1236694E-2,-4.3624327E-2,6.5065706E-3,1.0386293E-1,4.853589E-1,1.9206312E-1,-2.7877102E-2,-3.2377368E-1,2.9119936E-1,-6.1694505E-3,4.6148174E-2,-4.1990405E-1,1.0689301E-1,1.7906497E-1,-6.486149E-3,-5.691083E-2,1.0545493E-1,1.2222766E-2,2.0166107E-1,-9.749667E-1,2.9513149E-2,-2.8978235E-1,1.8725252E-1,4.400704E-2,-4.9826417E-2,-1.507177E-1,2.6058036E-1,9.3667336E-2,1.4148204E-1,-5.7083506E-2],"categories":[],"categories_nodes":[],"categories_segments":[],"categories_sizes":[],"default_left":[0,0,0,0,0,0,0,0,0,0,0,0,0,0,0,0,0,0,0,0,0,0,0,0,0,0,0,0,0,0,0,0,0,0,0,0,0,0,0,0,0,0,0,0,0,0,0,0,0,0,0,0,0,0,0,0,0,0,0,0,0,0,0,0,0,0,0,0,0,0,0,0,0,0,0,0,0,0,0,0,0,0,0,0,0],"id":5,"left_children":[1,3,5,7,9,11,13,15,17,-1,19,21,23,25,27,29,31,33,35,37,-1,39,41,43,45,47,49,-1,-1,51,-1,53,55,57,59,61,63,-1,-1,65,67,69,71,73,-1,75,77,79,81,-1,83,-1,-1,-1,-1,-1,-1,-1,-1,-1,-1,-1,-1,-1,-1,-1,-1,-1,-1,-1,-1,-1,-1,-1,-1,-1,-1,-1,-1,-1,-1,-1,-1,-1,-1],"loss_changes":[4.1881558E2,7.855859E1,6.398919E2,1.4182877E2,1.8736877E0,5.6366284E2,2.1487482E2,7.053406E0,6.62299E1,0E0,3.304388E0,2.8941238E2,1.398258E2,1.8328888E1,1.0733545E2,1.1140045E1,1.4844287E2,7.616887E1,7.932268E1,3.825894E-1,0E0,1.3349847E2,2.4693652E2,1.0528442E1,4.267039E2,1.8149294E2,3.4284973E-1,0E0,0E0,6.3502663E1,0E0,7.687828E1,3.8466492E0,1.3796635E1,2.5084808E1,1.388039E2,3.673144E2,0E0,0E0,8.394682E1,2.6397278E1,1.953151E1,8.222726E1,6.395189E2,0E0,1.4909975E2,1.2296057E2,2.3856583E1,5.049942E0,0E0,7.8706865E0,0E0,0E0,0E0,0E0,0E0,0E0,0E0,0E0,0E0,0E0,0E0,0E0,0E0,0E0,0E0,0E0,0E0,0E0,0E0,0E0,0E0,0E0,0E0,0E0,0E0,0E0,0E0,0E0,0E0,0E0,0E0,0E0,0E0,0E0],"parents":[2147483647,0,0,1,1,2,2,3,3,4,4,5,5,6,6,7,7,8,8,10,10,11,11,12,12,13,13,14,14,15,15,16,16,17,17,18,18,19,19,21,21,22,22,23,23,24,24,25,25,26,26,29,29,31,31,32,32,33,33,34,34,35,35,36,36,39,39,40,40,41,41,42,42,43,43,45,45,46,46,47,47,48,48,50,50],"right_children":[2,4,6,8,10,12,14,16,18,-1,20,22,24,26,28,30,32,34,36,38,-1,40,42,44,46,48,50,-1,-1,52,-1,54,56,58,60,62,64,-1,-1,66,68,70,72,74,-1,76,78,80,82,-1,84,-1,-1,-1,-1,-1,-1,-1,-1,-1,-1,-1,-1,-1,-1,-1,-1,-1,-1,-1,-1,-1,-1,-1,-1,-1,-1,-1,-1,-1,-1,-1,-1,-1,-1],"split_conditions":[-4.7211665E-1,-5.4632795E-1,7.202575E-1,-1.0678194E0,-5.462535E-1,3.4711426E-1,2.0239487E0,-1.1871834E0,-9.189495E-1,-5.690665E-2,-5.0907326E-1,-2.4836682E-2,3.6931816E-1,1.4653516E0,2.4533463E0,-1.2169126E0,-1.1424778E0,-9.1917306E-1,-8.5949105E-1,-5.0922227E-1,-1.0919266E-1,-2.5283718E-2,-2.4687631E-2,3.478594E-1,6.980536E-1,1.4651281E0,1.4655005E0,1.4497884E-1,-5.70966E-2,-1.2171361E0,-9.251198E-2,-1.1427013E0,-1.1127485E0,-9.7870606E-1,-9.1909856E-1,-8.8601637E-1,-7.7007973E-1,-6.7294715E-3,3.855382E-2,-3.9589513E-2,-2.5060201E-2,-2.4762098E-2,4.9747307E-2,3.4778494E-1,2.0167036E-1,1.3910414E0,7.201829E-1,1.1458552E0,1.4652025E0,-5.690935E-2,1.8532475E0,-6.290167E-2,2.0520009E-1,1.3523926E-1,7.265292E-1,-6.1236694E-2,-4.3624327E-2,6.5065706E-3,1.0386293E-1,4.853589E-1,1.9206312E-1,-2.7877102E-2,-3.2377368E-1,2.9119936E-1,-6.1694505E-3,4.6148174E-2,-4.1990405E-1,1.0689301E-1,1.7906497E-1,-6.486149E-3,-5.691083E-2,1.0545493E-1,1.2222766E-2,2.0166107E-1,-9.749667E-1,2.9513149E-2,-2.8978235E-1,1.8725252E-1,4.400704E-2,-4.9826417E-2,-1.507177E-1,2.6058036E-1,9.3667336E-2,1.4148204E-1,-5.7083506E-2],"split_indices":[1,1,1,1,1,1,1,1,1,0,1,1,1,1,1,1,1,1,1,1,0,1,1,1,1,1,1,0,0,1,0,1,1,1,1,1,1,0,0,1,1,1,1,1,0,0,1,1,1,0,1,0,0,0,0,0,0,0,0,0,0,0,0,0,0,0,0,0,0,0,0,0,0,0,0,0,0,0,0,0,0,0,0,0,0],"split_type":[0,0,0,0,0,0,0,0,0,0,0,0,0,0,0,0,0,0,0,0,0,0,0,0,0,0,0,0,0,0,0,0,0,0,0,0,0,0,0,0,0,0,0,0,0,0,0,0,0,0,0,0,0,0,0,0,0,0,0,0,0,0,0,0,0,0,0,0,0,0,0,0,0,0,0,0,0,0,0,0,0,0,0,0,0],"sum_hessian":[5.9491E4,2.3565E4,3.5926E4,1.6065E4,7.5E3,2.2878E4,1.3048E4,7.388E3,8.677E3,7.409E3,9.1E1,1.7211E4,5.667E3,1.1865E4,1.183E3,2.366E3,5.022E3,6.34E2,8.043E3,6.8E1,2.3E1,7.876E3,9.335E3,2.661E3,3.006E3,5.822E3,6.043E3,8.57E2,3.26E2,1.582E3,7.84E2,2.28E2,4.794E3,5.25E2,1.09E2,9.67E2,7.076E3,2.8E1,4E1,5.902E3,1.974E3,5.824E3,3.511E3,1.312E3,1.349E3,5.37E2,2.469E3,4.993E3,8.29E2,5.676E3,3.67E2,1.499E3,8.3E1,2.07E2,2.1E1,2.99E3,1.804E3,2.78E2,2.47E2,4.9E1,6E1,7.94E2,1.73E2,3.95E2,6.681E3,5.868E3,3.4E1,1.248E3,7.26E2,8.02E2,5.022E3,1.45E3,2.061E3,1.27E3,4.2E1,2.29E2,3.08E2,1.672E3,7.97E2,4.773E3,2.2E2,1.6E1,8.13E2,1.8E1,3.49E2],"tree_param":{"num_deleted":"0","num_feature":"4","num_nodes":"85","size_leaf_vector":"1"}},{"base_weights":[1.2807461E-4,-7.2347775E-2,4.766797E-2,-4.4691645E-2,-1.3157335E-1,1.1820065E-1,-7.600167E-2,-9.7631365E-2,9.364976E-2,-3.9836943E-2,-3.2165248E-2,5.5170562E-2,3.0958313E-1,-1.0437522E-1,2.0842114E-1,-5.1889773E-2,-2.0743172E-1,2.186378E-1,-5.6085728E-2,4.7315653E-2,-7.779979E-2,1.5397549E-1,-2.819936E-2,4.263441E-1,2.0611544E-1,-4.4120483E-2,-7.760386E-2,1.0153581E-1,-4.0020004E-2,-9.9130124E-2,1.8394732E-1,2.80932E-2,6.19453E-1,-1.5341206E-1,3.8375935E-1,-4.780276E-3,2.7269805E-2,3.0386202E-2,2.2925901E-1,-1.16606E-1,1.1843984E-1,3.8039944E-1,1.4121413E-1,-1.0472155E0,2.7228513E-1,2.7281747E0,-9.7343974E-2,-2.5838854E-2,-2.2719984E-1,5.5573577E-1,3.7018627E-2,1.4677329E-2,-3.5277402E-1,5.189632E-1,1.5739402E-1,-4.393263E-2,-2.4528112E-1,1.3990934E-1,7.8752175E-2,4.5179734E-1,5.824805E-3,2.1205445E-1,4.002117E-2,-4.5427186E-3,-3.9840966E-2,7.384025E-2,8.557714E-3,1.4121033E-1,-6.892787E-1,-3.7361175E-1,-2.828338E-1,6.9411904E-1,6.852339E-2,6.29636E-1,9.757899E-1,2.2188405E-2,-3.941886E-2],"categories":[],"categories_nodes":[],"categories_segments":[],"categories_sizes":[],"default_left":[0,0,0,0,0,0,0,0,0,0,0,0,0,0,0,0,0,0,0,0,0,0,0,0,0,0,0,0,0,0,0,0,0,0,0,0,0,0,0,0,0,0,0,0,0,0,0,0,0,0,0,0,0,0,0,0,0,0,0,0,0,0,0,0,0,0,0,0,0,0,0,0,0,0,0,0,0],"id":6,"left_children":[1,3,5,7,9,11,13,15,17,-1,19,21,23,25,27,29,-1,31,33,35,-1,37,39,41,43,-1,45,-1,-1,47,49,51,53,55,57,-1,-1,59,61,63,65,67,-1,69,71,73,75,-1,-1,-1,-1,-1,-1,-1,-1,-1,-1,-1,-1,-1,-1,-1,-1,-1,-1,-1,-1,-1,-1,-1,-1,-1,-1,-1,-1,-1,-1],"loss_changes":[2.0498279E2,3.859404E1,3.133913E2,1.1767261E2,9.028015E-1,2.7596893E2,1.05328316E2,3.155832E2,8.323851E1,0E0,1.6733735E0,1.4178577E2,6.8387146E1,1.3550842E1,5.2671036E1,1.2022992E2,0E0,1.8511115E2,8.670329E1,1.916583E-1,0E0,7.32825E1,1.2104457E2,5.2475586E0,2.4966324E2,0E0,4.0430917E2,0E0,0E0,7.6862526E1,1.8172858E2,4.1290585E1,8.131238E1,7.555794E0,3.5534668E0,0E0,0E0,4.8258553E1,2.239957E2,9.570961E0,4.0316086E1,3.1860083E2,0E0,1.9508057E0,2.5536157E2,1.0007904E1,4.227218E1,0E0,0E0,0E0,0E0,0E0,0E0,0E0,0E0,0E0,0E0,0E0,0E0,0E0,0E0,0E0,0E0,0E0,0E0,0E0,0E0,0E0,0E0,0E0,0E0,0E0,0E0,0E0,0E0,0E0,0E0],"parents":[2147483647,0,0,1,1,2,2,3,3,4,4,5,5,6,6,7,7,8,8,10,10,11,11,12,12,13,13,14,14,15,15,17,17,18,18,19,19,21,21,22,22,23,23,24,24,26,26,29,29,30,30,31,31,32,32,33,33,34,34,37,37,38,38,39,39,40,40,41,41,43,43,44,44,45,45,46,46],"right_children":[2,4,6,8,10,12,14,16,18,-1,20,22,24,26,28,30,-1,32,34,36,-1,38,40,42,44,-1,46,-1,-1,48,50,52,54,56,58,-1,-1,60,62,64,66,68,-1,70,72,74,76,-1,-1,-1,-1,-1,-1,-1,-1,-1,-1,-1,-1,-1,-1,-1,-1,-1,-1,-1,-1,-1,-1,-1,-1,-1,-1,-1,-1,-1,-1],"split_conditions":[-4.7211665E-1,-5.4632795E-1,7.202575E-1,-7.697817E-1,-5.462535E-1,3.4711426E-1,2.0239487E0,-7.698562E-1,-6.209119E-1,-3.9836943E-2,-5.0907326E-1,-2.4836682E-2,3.6931816E-1,7.204064E-1,2.4533463E0,-8.5949105E-1,-2.0743172E-1,-6.9527227E-1,-6.207629E-1,-5.0922227E-1,-7.779979E-2,-3.2309783E-1,-2.4687631E-2,3.478594E-1,4.2199636E-1,-4.4120483E-2,9.2717004E-1,1.0153581E-1,-4.0020004E-2,-8.8601637E-1,-8.445146E-1,-6.9534683E-1,-6.209864E-1,-6.208374E-1,-5.835827E-1,-4.780276E-3,2.7269805E-2,-4.7204205E-1,-3.228743E-1,-2.4762098E-2,4.9747307E-2,3.4778494E-1,1.4121413E-1,-4.3156305E-1,4.2721188E-1,9.066799E-1,1.4653516E0,-2.5838854E-2,-2.2719984E-1,5.5573577E-1,3.7018627E-2,1.4677329E-2,-3.5277402E-1,5.189632E-1,1.5739402E-1,-4.393263E-2,-2.4528112E-1,1.3990934E-1,7.8752175E-2,4.5179734E-1,5.824805E-3,2.1205445E-1,4.002117E-2,-4.5427186E-3,-3.9840966E-2,7.384025E-2,8.557714E-3,1.4121033E-1,-6.892787E-1,-3.7361175E-1,-2.828338E-1,6.9411904E-1,6.852339E-2,6.29636E-1,9.757899E-1,2.2188405E-2,-3.941886E-2],"split_indices":[1,1,1,1,1,1,1,1,1,0,1,1,1,1,1,1,0,1,1,1,0,1,1,1,1,0,1,0,0,1,1,1,1,1,1,0,0,1,1,1,1,1,0,0,1,1,1,0,0,0,0,0,0,0,0,0,0,0,0,0,0,0,0,0,0,0,0,0,0,0,0,0,0,0,0,0,0],"split_type":[0,0,0,0,0,0,0,0,0,0,0,0,0,0,0,0,0,0,0,0,0,0,0,0,0,0,0,0,0,0,0,0,0,0,0,0,0,0,0,0,0,0,0,0,0,0,0,0,0,0,0,0,0,0,0,0,0,0,0,0,0,0,0,0,0,0,0,0,0,0,0,0,0,0,0,0,0],"sum_hessian":[5.9491E4,2.3565E4,3.5926E4,1.6065E4,7.5E3,2.2878E4,1.3048E4,1.1619E4,4.446E3,7.409E3,9.1E1,1.7211E4,5.667E3,1.1865E4,1.183E3,1.0789E4,8.3E2,2.423E3,2.023E3,6.8E1,2.3E1,7.876E3,9.335E3,2.661E3,3.006E3,4.571E3,7.294E3,8.57E2,3.26E2,8.989E3,1.8E3,1.643E3,7.8E2,1.657E3,3.66E2,2.8E1,4E1,2.982E3,4.894E3,5.824E3,3.511E3,1.312E3,1.349E3,1.5E2,2.856E3,5E1,7.244E3,8.816E3,1.73E2,6.2E1,1.738E3,1.616E3,2.7E1,6E1,7.2E2,1.641E3,1.6E1,2.16E2,1.5E2,2.1E1,2.961E3,8.17E2,4.077E3,8.02E2,5.022E3,1.45E3,2.061E3,1.27E3,4.2E1,4.8E1,1.02E2,5.9E1,2.797E3,2.5E1,2.5E1,1.201E3,6.043E3],"tree_param":{"num_deleted":"0","num_feature":"4","num_nodes":"77","size_leaf_vector":"1"}},{"base_weights":[1.292581E-4,-4.889322E-2,3.553761E-2,-9.011426E-2,-3.154718E-2,8.933206E-2,-5.307816E-2,-7.585372E-2,-4.26984E-2,1.3237453E-1,-5.2575067E-2,3.0633636E-2,2.0090245E-1,-7.293257E-2,1.4594676E-1,-9.208185E-2,7.42543E-1,6.7969024E-2,2.0765598E0,-1.7553614E-1,-3.1946942E-2,4.666367E-2,-2.2626236E-1,7.849869E-1,1.9320963E-1,-3.088725E-2,-5.4105032E-2,7.1110584E-2,-2.8050723E-2,-8.803823E-2,-1.291116E-1,3.570102E-1,4.810407E-1,2.6058197E-1,-2.6167277E-2,-2.2642899E-1,6.400446E-1,7.054573E-3,-1.452771E-1,1.5318605E-1,-7.308468E-2,5.700896E-1,4.2353887E-2,8.986558E-2,2.5722295E-1,2.2564346E-1,9.4801E-2,1.9412013E0,-6.81432E-2,-2.8398897E-2,2.2645645E-1,1.6959915E-1,5.1037688E-2,4.4494398E-2,2.3851648E-1,-3.8334977E-2,8.078986E-2,-1.0727529E-3,1.9595368E-2,7.9494866E-4,1.2897897E-1,-2.4436144E-2,-5.864621E-3,3.7865967E-2,-9.5275715E-3,7.4956395E-2,1.0286472E-2,7.220942E-2,-1.9501261E-2,1.8827558E-1,6.211028E-1,-1.9041407E-1,-1.721324E-2],"categories":[],"categories_nodes":[],"categories_segments":[],"categories_sizes":[],"default_left":[0,0,0,0,0,0,0,0,0,0,0,0,0,0,0,0,0,0,0,0,0,0,0,0,0,0,0,0,0,0,0,0,0,0,0,0,0,0,0,0,0,0,0,0,0,0,0,0,0,0,0,0,0,0,0,0,0,0,0,0,0,0,0,0,0,0,0,0,0,0,0,0,0],"id":7,"left_children":[1,3,5,7,9,11,13,15,-1,17,19,21,23,25,27,29,31,33,35,37,39,41,-1,43,45,-1,47,-1,-1,49,-1,-1,51,53,55,-1,-1,57,-1,59,61,-1,63,-1,-1,65,67,69,71,-1,-1,-1,-1,-1,-1,-1,-1,-1,-1,-1,-1,-1,-1,-1,-1,-1,-1,-1,-1,-1,-1,-1,-1],"loss_changes":[1.03268265E2,1.7836945E1,1.6467249E2,5.491024E0,6.0541893E1,1.4076471E2,5.157405E1,7.717815E1,0E0,2.4991566E2,3.947687E1,1.772517E2,3.3143402E1,6.7022285E0,2.5846464E1,7.7510376E0,1.2650787E1,3.5073856E1,1.1924805E1,1.2604572E2,1.01539444E2,1.1020445E2,0E0,3.1182022E0,2.3326385E1,0E0,2.0446846E2,0E0,0E0,3.1497978E1,0E0,0E0,1.8169308E0,3.7984524E1,3.9065804E1,0E0,0E0,8.7105834E-1,0E0,1.0098262E2,4.8857307E0,0E0,8.56165E1,0E0,0E0,2.5477234E1,4.2332565E1,7.3524017E0,4.415479E1,0E0,0E0,0E0,0E0,0E0,0E0,0E0,0E0,0E0,0E0,0E0,0E0,0E0,0E0,0E0,0E0,0E0,0E0,0E0,0E0,0E0,0E0,0E0,0E0],"parents":[2147483647,0,0,1,1,2,2,3,3,4,4,5,5,6,6,7,7,9,9,10,10,11,11,12,12,13,13,14,14,15,15,16,16,17,17,18,18,19,19,20,20,21,21,23,23,24,24,26,26,29,29,32,32,33,33,34,34,37,37,39,39,40,40,42,42,45,45,46,46,47,47,48,48],"right_children":[2,4,6,8,10,12,14,16,-1,18,20,22,24,26,28,30,32,34,36,38,40,42,-1,44,46,-1,48,-1,-1,50,-1,-1,52,54,56,-1,-1,58,-1,60,62,-1,64,-1,-1,66,68,70,72,-1,-1,-1,-1,-1,-1,-1,-1,-1,-1,-1,-1,-1,-1,-1,-1,-1,-1,-1,-1,-1,-1,-1,-1],"split_conditions":[-3.9760724E-1,-1.0678194E0,7.202575E-1,-1.0678939E0,-7.7007973E-1,1.2343711E-1,2.0239487E0,-1.0681174E0,-4.26984E-2,-7.701543E-1,-7.697817E-1,5.6155123E-2,2.73052E-1,7.204064E-1,2.4533463E0,-1.0746741E0,-1.0680429E0,-9.189495E-1,-1.5412742E0,-7.698562E-1,-6.209119E-1,-3.9730912E-1,-2.2626236E-1,1.6121332E-1,1.3910414E0,-3.088725E-2,9.2717004E-1,7.1110584E-2,-2.8050723E-2,-1.1127485E0,-1.291116E-1,3.570102E-1,-1.0679684E0,-9.1917306E-1,-8.5949105E-1,-2.2642899E-1,6.400446E-1,1.5556105E0,-1.452771E-1,-6.9564486E-1,-5.462535E-1,5.700896E-1,-2.4836682E-2,8.986558E-2,2.5722295E-1,7.201829E-1,3.6931816E-1,8.6912715E-1,1.0929534E0,-2.8398897E-2,2.2645645E-1,1.6959915E-1,5.1037688E-2,4.4494398E-2,2.3851648E-1,-3.8334977E-2,8.078986E-2,-1.0727529E-3,1.9595368E-2,7.9494866E-4,1.2897897E-1,-2.4436144E-2,-5.864621E-3,3.7865967E-2,-9.5275715E-3,7.4956395E-2,1.0286472E-2,7.220942E-2,-1.9501261E-2,1.8827558E-1,6.211028E-1,-1.9041407E-1,-1.721324E-2],"split_indices":[1,1,1,1,1,1,1,1,0,1,1,1,1,1,1,1,1,1,3,1,1,1,0,1,0,0,1,0,0,1,0,0,1,1,1,0,0,3,0,1,1,0,1,0,0,1,1,1,1,0,0,0,0,0,0,0,0,0,0,0,0,0,0,0,0,0,0,0,0,0,0,0,0],"split_type":[0,0,0,0,0,0,0,0,0,0,0,0,0,0,0,0,0,0,0,0,0,0,0,0,0,0,0,0,0,0,0,0,0,0,0,0,0,0,0,0,0,0,0,0,0,0,0,0,0,0,0,0,0,0,0,0,0,0,0,0,0,0,0,0,0,0,0,0,0,0,0,0,0],"sum_hessian":[5.9491E4,2.4949E4,3.4542E4,7.388E3,1.7561E4,2.1494E4,1.3048E4,5.805E3,1.583E3,1.996E3,1.5565E4,1.4085E4,7.409E3,1.1865E4,1.183E3,5.693E3,1.12E2,1.933E3,6.3E1,2.235E3,1.333E4,1.3804E4,2.81E2,9.5E1,7.314E3,4.571E3,7.294E3,8.57E2,3.26E2,5.627E3,6.6E1,4E1,7.2E1,6.34E2,1.299E3,1E0,6.2E1,1.405E3,8.3E2,2.423E3,1.0907E4,3.1E1,1.3773E4,1.3E1,8.2E1,5.5E3,1.814E3,5E1,7.244E3,5.584E3,4.3E1,5.6E1,1.6E1,5.25E2,1.09E2,9.67E2,3.32E2,1.189E3,2.16E2,1.57E3,8.53E2,9.432E3,1.475E3,6.461E3,7.312E3,4.882E3,6.18E2,9.48E2,8.66E2,5E0,4.5E1,1.34E2,7.11E3],"tree_param":{"num_deleted":"0","num_feature":"4","num_nodes":"73","size_leaf_vector":"1"}},{"base_weights":[1.3732625E-4,-3.4172527E-2,2.4918923E-2,-9.3372E-2,-2.7966395E-2,6.257234E-2,-3.7107673E-2,-5.93748E-2,-4.8543144E-2,6.1275244E-1,-3.282449E-2,2.6429433E-2,1.6349107E-1,-5.100469E-2,1.02199E-1,-9.261097E-2,5.3483504E-1,3.0822223E-1,3.7836623E-1,-2.0899497E-1,-3.166607E-2,4.0440726E-1,2.3750605E-2,2.2399007E-1,1.0987888E-1,-2.6324995E-2,-7.477353E-2,4.9802225E-2,-1.9661224E-2,-6.0366355E-2,-1.7192884E-1,4.7784263E-1,7.278621E-2,7.8145456E-1,-2.0885023E-1,5.340094E-1,-3.34475E-2,-5.813549E-1,2.5613384E-2,1.9158612E-1,7.6602E-2,-4.1107726E-1,2.2330582E-1,-6.83126E-2,2.2145298E-1,-2.2852939E-2,-5.2927908E-2,-2.601179E-2,2.2296529E-1,-6.978329E-2,-4.2549077E-2,8.336755E-2,3.7610263E-1,-2.261871E-2,-6.538193E-3,2.7917914E-2,-6.291548E-3,7.659995E-2,-5.091338E-1,-4.8624903E-2,-3.4161067E-1,9.451163E-2,9.212617E-3,-1.6262898E-2,-1.1797082E-1,1.2534045E-1,6.411099E-2,1.1736682E-1,-2.3066316E-2],"categories":[],"categories_nodes":[],"categories_segments":[],"categories_sizes":[],"default_left":[0,0,0,0,0,0,0,0,0,0,0,0,0,0,0,0,0,0,0,0,0,0,0,0,0,0,0,0,0,0,0,0,0,0,0,0,0,0,0,0,0,0,0,0,0,0,0,0,0,0,0,0,0,0,0,0,0,0,0,0,0,0,0,0,0,0,0,0,0],"id":8,"left_children":[1,3,5,7,9,11,13,15,-1,17,19,21,23,25,27,29,31,33,-1,-1,35,-1,37,39,41,43,45,-1,-1,47,49,-1,-1,51,-1,-1,53,-1,55,57,-1,59,61,63,65,-1,67,-1,-1,-1,-1,-1,-1,-1,-1,-1,-1,-1,-1,-1,-1,-1,-1,-1,-1,-1,-1,-1,-1],"loss_changes":[5.0584106E1,9.164013E0,8.067796E1,5.497732E0,7.031674E1,7.83986E1,2.5267387E1,3.1312609E1,0E0,3.318255E1,1.7214851E1,5.600427E1,1.8359451E1,6.9587193E0,1.2683221E1,3.825982E0,2.5582584E1,5.6155243E1,0E0,0E0,7.227939E1,0E0,5.777233E1,2.655304E0,1.7777681E2,6.0595314E1,1.8120193E-1,0E0,0E0,2.2669815E1,7.578602E-1,0E0,0E0,1.8675037E1,0E0,0E0,1.0926964E1,0E0,4.9592155E1,1.585171E2,0E0,9.728727E1,4.3629036E1,2.2798923E1,1.1949844E0,0E0,3.9462497E0,0E0,0E0,0E0,0E0,0E0,0E0,0E0,0E0,0E0,0E0,0E0,0E0,0E0,0E0,0E0,0E0,0E0,0E0,0E0,0E0,0E0,0E0],"parents":[2147483647,0,0,1,1,2,2,3,3,4,4,5,5,6,6,7,7,9,9,10,10,11,11,12,12,13,13,14,14,15,15,16,16,17,17,20,20,22,22,23,23,24,24,25,25,26,26,29,29,30,30,33,33,36,36,38,38,39,39,41,41,42,42,43,43,44,44,46,46],"right_children":[2,4,6,8,10,12,14,16,-1,18,20,22,24,26,28,30,32,34,-1,-1,36,-1,38,40,42,44,46,-1,-1,48,50,-1,-1,52,-1,-1,54,-1,56,58,-1,60,62,64,66,-1,68,-1,-1,-1,-1,-1,-1,-1,-1,-1,-1,-1,-1,-1,-1,-1,-1,-1,-1,-1,-1,-1,-1],"split_conditions":[-3.9760724E-1,-1.1871834E0,7.202575E-1,-1.2169126E0,-1.1573051E0,3.4711426E-1,2.0239487E0,-1.2171361E0,-4.8543144E-2,-1.1574541E0,-1.1427013E0,-3.9730912E-1,3.6931816E-1,1.4653516E0,2.4533463E0,-1.2765201E0,-1.2169871E0,-1.1796579E0,3.7836623E-1,-2.0899497E-1,-1.1424778E0,4.0440726E-1,-3.9723468E-1,3.478594E-1,6.980536E-1,1.1671648E0,1.4655005E0,4.9802225E-2,-1.9661224E-2,-1.2765946E0,-1.2467909E0,4.7784263E-1,7.278621E-2,-1.179807E0,-2.0885023E-1,5.340094E-1,-1.0383136E0,-5.813549E-1,-2.4836682E-2,3.4778494E-1,7.6602E-2,6.685479E-1,7.201829E-1,1.1458552E0,1.4652025E0,-2.2852939E-2,1.8532475E0,-2.601179E-2,2.2296529E-1,-6.978329E-2,-4.2549077E-2,8.336755E-2,3.7610263E-1,-2.261871E-2,-6.538193E-3,2.7917914E-2,-6.291548E-3,7.659995E-2,-5.091338E-1,-4.8624903E-2,-3.4161067E-1,9.451163E-2,9.212617E-3,-1.6262898E-2,-1.1797082E-1,1.2534045E-1,6.411099E-2,1.1736682E-1,-2.3066316E-2],"split_indices":[1,1,1,1,1,1,1,1,0,1,1,1,1,1,1,1,1,1,0,0,1,0,1,1,1,1,1,0,0,1,1,0,0,1,0,0,1,0,1,1,0,1,1,1,1,0,1,0,0,0,0,0,0,0,0,0,0,0,0,0,0,0,0,0,0,0,0,0,0],"split_type":[0,0,0,0,0,0,0,0,0,0,0,0,0,0,0,0,0,0,0,0,0,0,0,0,0,0,0,0,0,0,0,0,0,0,0,0,0,0,0,0,0,0,0,0,0,0,0,0,0,0,0,0,0,0,0,0,0,0,0,0,0,0,0,0,0,0,0,0,0],"sum_hessian":[5.9491E4,2.4949E4,3.4542E4,2.366E3,2.2583E4,2.1494E4,1.3048E4,1.582E3,7.84E2,1.69E2,2.2414E4,1.5827E4,5.667E3,1.1865E4,1.183E3,1.499E3,8.3E1,1.16E2,5.3E1,3.8E1,2.2376E4,3.1E1,1.5796E4,2.661E3,3.006E3,5.822E3,6.043E3,8.57E2,3.26E2,1.067E3,4.32E2,1.7E1,6.6E1,7.9E1,3.7E1,2.1E1,2.2355E4,1.4E1,1.5782E4,1.312E3,1.349E3,5.37E2,2.469E3,4.979E3,8.43E2,5.676E3,3.67E2,1.034E3,3.3E1,1.41E2,2.91E2,3.9E1,4E1,4.859E3,1.7496E4,6.447E3,9.335E3,1.27E3,4.2E1,4.01E2,1.36E2,1.672E3,7.97E2,4.773E3,2.06E2,3E1,8.13E2,1.8E1,3.49E2],"tree_param":{"num_deleted":"0","num_feature":"4","num_nodes":"69","size_leaf_vector":"1"}},{"base_weights":[1.107459E-4,-2.462464E-2,2.1513695E-2,-1.0167479E-2,-1.715204E0,1.5746211E0,1.8048113E-2,-2.3709545E-2,4.293496E-1,-1.8635468E0,-9.7145504E-1,6.004756E-1,3.066934E-1,4.863276E-2,-2.5963381E-2,-7.8065507E-3,-4.807984E-2,3.8868394E-1,9.2481226E-2,-2.600789E-1,-5.756147E-1,1.5463698E-2,-5.571896E-1,1.9626042E-3,9.743309E-2,-3.5692632E-2,7.15647E-2,-1.4450349E-2,3.3787212E-1,-1.8596465E-2,-1.4537512E-2,1.0654677E-1,-6.5815456E-2,1.8815333E-1,8.0389164E-2,-1.8418022E-2,-5.2329686E-2,3.4878947E-2,-1.3780903E-2,-8.583681E-3,1.6531853E-2,1.3706537E-1,6.451374E-2,8.847101E-2,-9.087039E-3,-7.4771413E-4,6.1777648E-2,1.5582802E-3,-2.3146288E-2,5.808079E-2,5.465321E-2,-1.4395814E-1,3.137179E-2,-1.4272663E-2,4.7112335E-2,-1.5998276E-2,-1.1037994E-2],"categories":[],"categories_nodes":[],"categories_segments":[],"categories_sizes":[],"default_left":[0,0,0,0,0,0,0,0,0,0,0,0,0,0,0,0,0,0,0,0,0,0,0,0,0,0,0,0,0,0,0,0,0,0,0,0,0,0,0,0,0,0,0,0,0,0,0,0,0,0,0,0,0,0,0,0,0],"id":9,"left_children":[1,3,5,7,9,11,13,15,17,19,21,-1,-1,23,25,27,29,-1,-1,-1,-1,-1,-1,31,33,35,37,39,41,-1,43,45,47,49,51,53,55,-1,-1,-1,-1,-1,-1,-1,-1,-1,-1,-1,-1,-1,-1,-1,-1,-1,-1,-1,-1],"loss_changes":[3.1496199E1,6.745047E2,1.716439E2,1.6288583E2,2.4006775E1,1.4696732E1,4.2840134E1,1.0288585E1,8.539751E1,9.003113E0,3.72507E1,0E0,0E0,4.2764774E1,1.2384423E1,3.6902367E1,4.889618E0,0E0,0E0,0E0,0E0,0E0,0E0,6.804964E1,1.4177719E1,3.4093094E0,6.2238436E0,1.5529964E1,4.3309593E0,0E0,1.49931555E1,4.090706E1,4.690506E0,1.1978149E-2,1.0476868E2,2.9797667E1,9.1739655E-2,0E0,0E0,0E0,0E0,0E0,0E0,0E0,0E0,0E0,0E0,0E0,0E0,0E0,0E0,0E0,0E0,0E0,0E0,0E0,0E0],"parents":[2147483647,0,0,1,1,2,2,3,3,4,4,5,5,6,6,7,7,8,8,9,9,10,10,13,13,14,14,15,15,16,16,23,23,24,24,25,25,26,26,27,27,28,28,30,30,31,31,32,32,33,33,34,34,35,35,36,36],"right_children":[2,4,6,8,10,12,14,16,18,20,22,-1,-1,24,26,28,30,-1,-1,-1,-1,-1,-1,32,34,36,38,40,42,-1,44,46,48,50,52,54,56,-1,-1,-1,-1,-1,-1,-1,-1,-1,-1,-1,-1,-1,-1,-1,-1,-1,-1,-1,-1],"split_conditions":[-2.1133372E-1,-3.228743E-1,-1.7392996E-1,-3.2309783E-1,-2.861411E-1,-1.7400444E-1,7.202575E-1,-5.4632795E-1,-3.2302326E-1,-3.227997E-1,-2.4829032E-1,6.004756E-1,3.066934E-1,-2.4687631E-2,2.0239487E0,-5.838807E-1,-5.462535E-1,3.8868394E-1,9.2481226E-2,-2.600789E-1,-5.756147E-1,1.5463698E-2,-5.571896E-1,-2.4836682E-2,4.9747307E-2,1.4653516E0,2.4533463E0,-7.3275054E-1,-5.835827E-1,-1.8596465E-2,-4.7174406E-1,-2.5283718E-2,-2.4762098E-2,4.797392E-1,1.2343711E-1,1.4651281E0,1.4655005E0,3.4878947E-2,-1.3780903E-2,-8.583681E-3,1.6531853E-2,1.3706537E-1,6.451374E-2,8.847101E-2,-9.087039E-3,-7.4771413E-4,6.1777648E-2,1.5582802E-3,-2.3146288E-2,5.808079E-2,5.465321E-2,-1.4395814E-1,3.137179E-2,-1.4272663E-2,4.7112335E-2,-1.5998276E-2,-1.1037994E-2],"split_indices":[1,1,1,1,1,1,1,1,1,1,1,0,0,1,1,1,1,0,0,0,0,0,0,1,1,1,1,1,1,0,1,1,1,0,1,1,1,0,0,0,0,0,0,0,0,0,0,0,0,0,0,0,0,0,0,0,0],"split_type":[0,0,0,0,0,0,0,0,0,0,0,0,0,0,0,0,0,0,0,0,0,0,0,0,0,0,0,0,0,0,0,0,0,0,0,0,0,0,0,0,0,0,0,0,0,0,0,0,0,0,0,0,0,0,0,0,0],"sum_hessian":[5.9491E4,2.7597E4,3.1894E4,2.7364E4,2.33E2,7E1,3.1824E4,2.6547E4,8.17E2,1.93E2,4E1,3.8E1,3.2E1,1.8776E4,1.3048E4,1.6065E4,1.0482E4,9.9E1,7.18E2,1.1E1,1.82E2,1.9E1,2.1E1,9.598E3,9.178E3,1.1865E4,1.183E3,1.5763E4,3.02E2,7.409E3,3.073E3,3.774E3,5.824E3,1.45E3,7.728E3,5.822E3,6.043E3,8.57E2,3.26E2,1.3097E4,2.666E3,1.52E2,1.5E2,1.48E2,2.925E3,1.8E3,1.974E3,8.02E2,5.022E3,7.42E2,7.08E2,3.19E2,7.409E3,4.993E3,8.29E2,5.676E3,3.67E2],"tree_param":{"num_deleted":"0","num_feature":"4","num_nodes":"57","size_leaf_vector":"1"}},{"base_weights":[8.338168E-5,-1.7259933E-2,1.5090144E-2,-7.0897783E-3,-1.2065291E0,1.1150119E0,1.2635799E-2,-1.6586507E-2,3.0113304E-1,-1.3087904E0,-6.932312E-1,4.2495197E-1,2.1747354E-1,3.5990257E-2,-1.7692512E-2,-8.3674747E-4,-3.4270603E-2,2.7324486E-1,6.4775474E-2,-1.885572E-1,-4.038739E-1,1.1056573E-2,-3.9763075E-1,2.026745E-2,1.8923087E-1,-2.4031008E-2,5.0113272E-2,-1.973971E-2,2.9111984E-1,-9.31291E-2,-2.5272384E-2,2.7475346E-2,-8.307279E-1,1.6801497E-1,7.829359E-2,-1.2519785E-2,-3.6635287E-2,2.4427522E-2,-9.6592605E-3,-5.155981E-3,-2.0314598E-1,2.8619155E-1,7.5660765E-2,-2.6430761E-2,-1.7194742E-1,6.422946E-2,-1.0095034E-2,6.549574E-3,6.0161763E-1,-3.2460502E-1,-2.0491315E-1,8.142652E-2,5.0123855E-2,-1.1052241E-2,2.7536092E-2,-1.1199647E-2,-7.7356105E-3],"categories":[],"categories_nodes":[],"categories_segments":[],"categories_sizes":[],"default_left":[0,0,0,0,0,0,0,0,0,0,0,0,0,0,0,0,0,0,0,0,0,0,0,0,0,0,0,0,0,0,0,0,0,0,0,0,0,0,0,0,0,0,0,0,0,0,0,0,0,0,0,0,0,0,0,0,0],"id":10,"left_children":[1,3,5,7,9,11,13,15,17,19,21,-1,-1,23,25,27,29,-1,-1,-1,-1,-1,-1,31,33,35,37,39,41,43,45,47,49,51,-1,53,55,-1,-1,-1,-1,-1,-1,-1,-1,-1,-1,-1,-1,-1,-1,-1,-1,-1,-1,-1,-1],"loss_changes":[1.5484064E1,3.3379068E2,8.6089264E1,8.0105316E1,1.1375458E1,7.3236847E0,2.2542324E1,7.394127E0,4.2301735E1,4.0969543E0,1.8972967E1,0E0,0E0,4.331669E1,5.9520297E0,7.7506874E1,6.621093E0,0E0,0E0,0E0,0E0,0E0,0E0,1.0005422E2,2.502781E0,1.8368244E0,3.0541444E0,2.212708E1,2.1789528E1,3.9500866E0,2.1763588E1,1.8047194E2,4.345192E0,7.9826355E-2,0E0,1.6797306E1,4.473591E-2,0E0,0E0,0E0,0E0,0E0,0E0,0E0,0E0,0E0,0E0,0E0,0E0,0E0,0E0,0E0,0E0,0E0,0E0,0E0,0E0],"parents":[2147483647,0,0,1,1,2,2,3,3,4,4,5,5,6,6,7,7,8,8,9,9,10,10,13,13,14,14,15,15,16,16,23,23,24,24,25,25,26,26,27,27,28,28,29,29,30,30,31,31,32,32,33,33,35,35,36,36],"right_children":[2,4,6,8,10,12,14,16,18,20,22,-1,-1,24,26,28,30,-1,-1,-1,-1,-1,-1,32,34,36,38,40,42,44,46,48,50,52,-1,54,56,-1,-1,-1,-1,-1,-1,-1,-1,-1,-1,-1,-1,-1,-1,-1,-1,-1,-1,-1,-1],"split_conditions":[-2.1133372E-1,-3.228743E-1,-1.7392996E-1,-3.2309783E-1,-2.861411E-1,-1.7400444E-1,7.201829E-1,-6.209119E-1,-3.2302326E-1,-3.227997E-1,-2.4829032E-1,4.2495197E-1,2.1747354E-1,6.980536E-1,2.0239487E0,-6.9564486E-1,-6.207629E-1,2.7324486E-1,6.4775474E-2,-1.885572E-1,-4.038739E-1,1.1056573E-2,-3.9763075E-1,6.685479E-1,1.3910414E0,1.4653516E0,2.4533463E0,-7.1017414E-1,-6.9534683E-1,-6.208374E-1,-5.4632795E-1,5.330153E-1,-4.3156305E-1,7.20034E-1,7.829359E-2,7.204064E-1,1.4655005E0,2.4427522E-2,-9.6592605E-3,-5.155981E-3,-2.0314598E-1,2.8619155E-1,7.5660765E-2,-2.6430761E-2,-1.7194742E-1,6.422946E-2,-1.0095034E-2,6.549574E-3,6.0161763E-1,-3.2460502E-1,-2.0491315E-1,8.142652E-2,5.0123855E-2,-1.1052241E-2,2.7536092E-2,-1.1199647E-2,-7.7356105E-3],"split_indices":[1,1,1,1,1,1,1,1,1,1,1,0,0,1,1,1,1,0,0,0,0,0,0,1,0,1,1,1,1,1,1,1,0,1,0,1,1,0,0,0,0,0,0,0,0,0,0,0,0,0,0,0,0,0,0,0,0],"split_type":[0,0,0,0,0,0,0,0,0,0,0,0,0,0,0,0,0,0,0,0,0,0,0,0,0,0,0,0,0,0,0,0,0,0,0,0,0,0,0,0,0,0,0,0,0,0,0,0,0,0,0,0,0,0,0,0,0],"sum_hessian":[5.9491E4,2.7597E4,3.1894E4,2.7364E4,2.33E2,7E1,3.1824E4,2.6547E4,8.17E2,1.93E2,4E1,3.8E1,3.2E1,1.7979E4,1.3845E4,1.4042E4,1.2505E4,9.9E1,7.18E2,1.1E1,1.82E2,1.9E1,2.1E1,1.6307E4,1.672E3,1.2662E4,1.183E3,1.3189E4,8.53E2,1.657E3,1.0848E4,1.6171E4,1.36E2,1.293E3,3.79E2,6.619E3,6.043E3,8.57E2,3.26E2,1.3139E4,5E1,4.6E1,8.07E2,1.641E3,1.6E1,3.66E2,1.0482E4,1.6126E4,4.5E1,4.8E1,8.8E1,9E0,1.284E3,5.368E3,1.251E3,5.676E3,3.67E2],"tree_param":{"num_deleted":"0","num_feature":"4","num_nodes":"57","size_leaf_vector":"1"}},{"base_weights":[6.362716E-5,-3.031565E-2,4.415115E-3,-2.1056544E-2,-6.289785E-2,3.4707057E-1,3.5728605E-3,-3.2602612E-2,5.609289E-1,-1.899635E-2,-1.5535599E-2,9.855459E-2,-1.9259525E-5,-2.9242164E-2,-2.4390672E-1,2.6316094E-1,3.7561145E-1,5.0240148E-2,1.4800156E0,-1.0266316E-1,4.77492E-3,-3.451473E-2,3.9317992E-1,-1.7362823E-1,-1.8420531E-1,1.3032827E-1,4.689294E-2,6.8969056E-2,-6.1863756E-1,-1.8942294E-1,1.5235528E0,2.5214836E-2,-9.567036E-2,8.941152E-2,2.608633E-4,-5.4428643E-3,-2.3356378E-2,1.0172979E-1,-8.02115E-2,4.490629E-3,1.0618171E-1,-1.6737296E-1,-3.5325864E-1,4.7034407E-1,2.0896964E-1,5.3059254E-3,2.658231E-2,8.178152E-3,6.6037364E-2,-9.705149E-3,2.6717708E-3],"categories":[],"categories_nodes":[],"categories_segments":[],"categories_sizes":[],"default_left":[0,0,0,0,0,0,0,0,0,0,0,0,0,0,0,0,0,0,0,0,0,0,0,0,0,0,0,0,0,0,0,0,0,0,0,0,0,0,0,0,0,0,0,0,0,0,0,0,0,0,0],"id":11,"left_children":[1,3,5,7,9,-1,11,13,15,-1,-1,17,19,21,23,-1,25,27,29,31,33,35,-1,-1,37,-1,-1,39,41,-1,43,45,-1,47,49,-1,-1,-1,-1,-1,-1,-1,-1,-1,-1,-1,-1,-1,-1,-1,-1],"loss_changes":[7.864682E0,2.2474136E0,5.050945E1,3.9032528E1,4.477501E-3,0E0,1.7742346E1,4.0360427E0,6.2935753E0,0E0,0E0,1.2640652E2,2.46583E1,3.964828E1,1.6726108E0,0E0,8.73682E-1,2.2992771E1,6.8451996E0,6.18381E1,1.8290071E1,3.961444E0,0E0,0E0,3.4418082E0,0E0,0E0,2.7432327E1,1.0400524E0,0E0,1.2138977E0,6.6944367E-1,0E0,1.968644E1,1.2813848E1,0E0,0E0,0E0,0E0,0E0,0E0,0E0,0E0,0E0,0E0,0E0,0E0,0E0,0E0,0E0,0E0],"parents":[2147483647,0,0,1,1,2,2,3,3,4,4,6,6,7,7,8,8,11,11,12,12,13,13,14,14,16,16,17,17,18,18,19,19,20,20,21,21,24,24,27,27,28,28,30,30,31,31,33,33,34,34],"right_children":[2,4,6,8,10,-1,12,14,16,-1,-1,18,20,22,24,-1,26,28,30,32,34,36,-1,-1,38,-1,-1,40,42,-1,44,46,-1,48,50,-1,-1,-1,-1,-1,-1,-1,-1,-1,-1,-1,-1,-1,-1,-1,-1],"split_conditions":[-1.0383136E0,-1.0678939E0,-1.0381646E0,-1.0681174E0,-1.0678194E0,3.4707057E-1,-7.7007973E-1,-1.1052976E0,-1.0680429E0,-1.899635E-2,-1.5535599E-2,-7.701543E-1,-7.697817E-1,-1.1127485E0,-1.0977721E0,2.6316094E-1,-1.0679684E0,-7.997345E-1,-1.5412742E0,-7.698562E-1,-6.209119E-1,-1.1423287E0,3.9317992E-1,-1.7362823E-1,-1.0746741E0,1.3032827E-1,4.689294E-2,-8.5949105E-1,-7.7723265E-1,-1.8942294E-1,-1.2582122E-1,-1.2582122E-1,-9.567036E-2,-6.9527227E-1,-4.7211665E-1,-5.4428643E-3,-2.3356378E-2,1.0172979E-1,-8.02115E-2,4.490629E-3,1.0618171E-1,-1.6737296E-1,-3.5325864E-1,4.7034407E-1,2.0896964E-1,5.3059254E-3,2.658231E-2,8.178152E-3,6.6037364E-2,-9.705149E-3,2.6717708E-3],"split_indices":[1,1,1,1,1,0,1,1,1,0,0,1,1,1,1,0,1,1,3,1,1,1,0,0,1,0,0,1,1,0,2,2,0,1,1,0,0,0,0,0,0,0,0,0,0,0,0,0,0,0,0],"split_type":[0,0,0,0,0,0,0,0,0,0,0,0,0,0,0,0,0,0,0,0,0,0,0,0,0,0,0,0,0,0,0,0,0,0,0,0,0,0,0,0,0,0,0,0,0,0,0,0,0,0,0],"sum_hessian":[5.9491E4,7.453E3,5.2038E4,5.805E3,1.648E3,3.7E1,5.2001E4,5.693E3,1.12E2,1.583E3,6.5E1,1.894E3,5.0107E4,5.605E3,8.8E1,4E1,7.2E1,1.831E3,6.3E1,2.235E3,4.7872E4,5.584E3,2.1E1,1.2E1,7.6E1,5.6E1,1.6E1,1.782E3,4.9E1,1E0,6.2E1,1.405E3,8.3E2,2.423E3,4.5449E4,4.054E3,1.53E3,1E1,6.6E1,1.499E3,2.83E2,4.6E1,3E0,5.8E1,4E0,1.257E3,1.48E2,1.643E3,7.8E2,9.523E3,3.5926E4],"tree_param":{"num_deleted":"0","num_feature":"4","num_nodes":"51","size_leaf_vector":"1"}},{"base_weights":[6.2191124E-5,-7.200928E-3,1.2239603E-2,1.5278845E-3,-1.8969633E-2,7.0051864E-2,-9.989441E-3,-7.2217965E-3,9.437414E-2,3.5142444E-2,1.1608185E-1,-7.400738E-1,-3.0574878E-3,-4.000153E-3,-6.5421516E-1,1.3496262E-1,-1.6715428E-3,4.2140666E-2,-2.8279662E-1,9.321896E-2,4.146964E-2,-2.8348333E-1,-1.9062778E-1,1.584262E0,-9.067592E-3,-9.020294E-3,7.627206E-2,-1.7094042E0,2.1340339E-2,2.1852078E-2,7.2451316E-2,1.2257014E-1,-1.5143585E-2,4.1469783E-2,-3.718405E-1,6.021362E-1,2.979291E-1,-1.1037617E0,1.982457E-4,-5.44978E-4,-2.5542435E-1,2.3607674E-1,1.3727191E-2,-2.453696E-1,-5.39475E-1,2.1706165E-1,-3.308361E-1,3.599012E-2,3.9671768E-2,-1.0366342E-1,1.3911289E-2,-4.1120845E-1,-2.9476804E-1,4.0066183E-1,-1.3731715E-3],"categories":[],"categories_nodes":[],"categories_segments":[],"categories_sizes":[],"default_left":[0,0,0,0,0,0,0,0,0,0,0,0,0,0,0,0,0,0,0,0,0,0,0,0,0,0,0,0,0,0,0,0,0,0,0,0,0,0,0,0,0,0,0,0,0,0,0,0,0,0,0,0,0,0,0],"id":12,"left_children":[1,3,5,7,-1,9,11,13,15,17,19,21,23,25,27,29,-1,31,-1,33,-1,-1,-1,35,37,39,41,43,45,-1,-1,47,49,-1,-1,-1,-1,51,53,-1,-1,-1,-1,-1,-1,-1,-1,-1,-1,-1,-1,-1,-1,-1,-1],"loss_changes":[5.2619166E0,1.8226364E1,2.8564867E1,2.6194908E1,0E0,9.91519E0,8.1250656E1,6.1419952E1,1.1266075E1,2.40718E1,1.3352051E0,2.6368942E0,1.5174736E2,1.1817207E1,1.0411094E2,1.3054195E1,0E0,1.6072266E1,0E0,7.893703E1,0E0,0E0,0E0,1.3005478E1,1.6073029E2,1.6747293E2,3.7392868E1,3.043991E0,7.184035E1,0E0,0E0,2.0658493E-2,4.1437305E1,0E0,0E0,0E0,0E0,2.9561005E0,1.0021271E2,0E0,0E0,0E0,0E0,0E0,0E0,0E0,0E0,0E0,0E0,0E0,0E0,0E0,0E0,0E0,0E0],"parents":[2147483647,0,0,1,1,2,2,3,3,5,5,6,6,7,7,8,8,9,9,10,10,11,11,12,12,13,13,14,14,15,15,17,17,19,19,23,23,24,24,25,25,26,26,27,27,28,28,31,31,32,32,37,37,38,38],"right_children":[2,4,6,8,-1,10,12,14,16,18,20,22,24,26,28,30,-1,32,-1,34,-1,-1,-1,36,38,40,42,44,46,-1,-1,48,50,-1,-1,-1,-1,52,54,-1,-1,-1,-1,-1,-1,-1,-1,-1,-1,-1,-1,-1,-1,-1,-1],"split_conditions":[-2.4687631E-2,-2.4762098E-2,3.6931816E-1,-2.5283718E-2,-1.8969633E-2,3.4711426E-1,4.2199636E-1,-1.738555E-1,-2.4836682E-2,2.7312648E-1,3.478594E-1,-4.3156305E-1,4.2721188E-1,-2.1133372E-1,-8.459314E-2,-2.5060201E-2,-1.6715428E-3,4.9747307E-2,-2.8279662E-1,3.4778494E-1,4.146964E-2,-2.8348333E-1,-1.9062778E-1,4.2236882E-1,4.966547E-1,-3.228743E-1,-1.7392996E-1,-1.7378092E-1,-3.9589513E-2,2.1852078E-2,7.2451316E-2,1.3910414E0,1.2343711E-1,4.1469783E-2,-3.718405E-1,6.021362E-1,2.979291E-1,-4.3156305E-1,6.084188E-1,-5.44978E-4,-2.5542435E-1,2.3607674E-1,1.3727191E-2,-2.453696E-1,-5.39475E-1,2.1706165E-1,-3.308361E-1,3.599012E-2,3.9671768E-2,-1.0366342E-1,1.3911289E-2,-4.1120845E-1,-2.9476804E-1,4.0066183E-1,-1.3731715E-3],"split_indices":[1,1,1,1,0,1,1,1,1,1,1,0,1,1,1,1,0,1,0,1,0,0,0,1,1,1,1,1,1,0,0,0,1,0,0,0,0,0,1,0,0,0,0,0,0,0,0,0,0,0,0,0,0,0,0],"split_type":[0,0,0,0,0,0,0,0,0,0,0,0,0,0,0,0,0,0,0,0,0,0,0,0,0,0,0,0,0,0,0,0,0,0,0,0,0,0,0,0,0,0,0,0,0,0,0,0,0,0,0,0,0,0,0],"sum_hessian":[5.9491E4,3.7265E4,2.2226E4,3.2243E4,5.022E3,6.172E3,1.6054E4,2.9467E4,2.776E3,3.511E3,2.661E3,1.5E2,1.5904E4,2.9322E4,1.45E2,1.974E3,8.02E2,3.487E3,2.4E1,1.312E3,1.349E3,4.8E1,1.02E2,5.9E1,1.5845E4,2.7597E4,1.725E3,5.6E1,8.9E1,1.248E3,7.26E2,1.45E3,2.037E3,1.27E3,4.2E1,3.3E1,2.6E1,1.32E2,1.5713E4,2.7364E4,2.33E2,7E1,1.655E3,6E0,5E1,5.5E1,3.4E1,1.153E3,2.97E2,3.19E2,1.718E3,3.8E1,9.4E1,5.5E1,1.5658E4],"tree_param":{"num_deleted":"0","num_feature":"4","num_nodes":"55","size_leaf_vector":"1"}},{"base_weights":[2.1760938E-5,-4.539327E-2,1.9035197E-3,-2.1445898E-2,-2.808803E-2,4.522382E-1,5.5936887E-4,-4.5056786E-2,4.004324E-1,2.374566E-1,2.7276707E-1,-1.4213759E-1,8.843771E-4,-2.7872068E-3,-9.616215E-2,3.480434E-1,5.71062E-2,5.7224256E-1,-1.4208144E-1,3.8673782E-1,3.8625413E-4,-6.370682E-2,7.5825435E-1,-5.6292098E-2,-5.3946495E-2,6.4752854E-2,2.7179775E-1,-3.719102E-2,2.4711625E-3,-2.3546472E-2,-1.3852518E-2,3.6967382E-1,1.7307118E-1,1.6378726E-1,-3.027826E-2,-5.8751586E-3,-1.6190657E-2,2.8074357E-1,6.270208E-4],"categories":[],"categories_nodes":[],"categories_segments":[],"categories_sizes":[],"default_left":[0,0,0,0,0,0,0,0,0,0,0,0,0,0,0,0,0,0,0,0,0,0,0,0,0,0,0,0,0,0,0,0,0,0,0,0,0,0,0],"id":13,"left_children":[1,3,5,7,-1,9,11,13,15,17,-1,-1,19,21,23,-1,-1,25,-1,-1,27,29,31,-1,33,-1,-1,35,37,-1,-1,-1,-1,-1,-1,-1,-1,-1,-1],"loss_changes":[5.0842805E0,2.7320318E0,3.457913E1,1.5786182E1,0E0,1.6469944E1,8.78137E0,3.2400346E0,1.3185492E1,2.8123259E1,0E0,0E0,3.6524582E1,3.8158165E1,2.6120472E0,0E0,0E0,9.320318E0,0E0,0E0,4.4577756E0,1.9384336E-1,4.532585E0,0E0,1.3188898E1,0E0,0E0,8.825145E-1,1.9172567E1,0E0,0E0,0E0,0E0,0E0,0E0,0E0,0E0,0E0,0E0],"parents":[2147483647,0,0,1,1,2,2,3,3,5,5,6,6,7,7,8,8,9,9,12,12,13,13,14,14,17,17,20,20,21,21,22,22,24,24,27,27,28,28],"right_children":[2,4,6,8,-1,10,12,14,16,18,-1,-1,20,22,24,-1,-1,26,-1,-1,28,30,32,-1,34,-1,-1,36,38,-1,-1,-1,-1,-1,-1,-1,-1,-1,-1],"split_conditions":[-1.1871834E0,-1.2169126E0,-1.1573051E0,-1.2171361E0,-2.808803E-2,-1.1574541E0,-1.1427013E0,-1.291422E0,-1.2169871E0,-1.1796579E0,2.7276707E-1,-1.4213759E-1,-1.1424778E0,-1.291571E0,-1.2765946E0,3.480434E-1,5.71062E-2,-1.179807E0,-1.4208144E-1,3.8673782E-1,-1.1127485E0,-1.366006E0,-1.2914965E0,-5.6292098E-2,-1.2765201E0,6.4752854E-2,2.7179775E-1,-1.1423287E0,-1.1052976E0,-2.3546472E-2,-1.3852518E-2,3.6967382E-1,1.7307118E-1,1.6378726E-1,-3.027826E-2,-5.8751586E-3,-1.6190657E-2,2.8074357E-1,6.270208E-4],"split_indices":[1,1,1,1,0,1,1,1,1,1,0,0,1,1,1,0,0,1,0,0,1,1,1,0,1,0,0,1,1,0,0,0,0,0,0,0,0,0,0],"split_type":[0,0,0,0,0,0,0,0,0,0,0,0,0,0,0,0,0,0,0,0,0,0,0,0,0,0,0,0,0,0,0,0,0,0,0,0,0,0,0],"sum_hessian":[5.9491E4,2.366E3,5.7125E4,1.582E3,7.84E2,1.69E2,5.6956E4,1.499E3,8.3E1,1.16E2,5.3E1,3.8E1,5.6918E4,8.21E2,6.78E2,1.7E1,6.6E1,7.9E1,3.7E1,2.1E1,5.6897E4,7.61E2,6E1,2.13E2,4.65E2,3.9E1,4E1,2.99E3,5.3907E4,4.11E2,3.5E2,1.5E1,4.5E1,3.3E1,4.32E2,1.46E3,1.53E3,2.1E1,5.3886E4],"tree_param":{"num_deleted":"0","num_feature":"4","num_nodes":"39","size_leaf_vector":"1"}},{"base_weights":[4.766569E-5,4.3147947E-3,-1.5139903E-2,-4.010453E-4,8.8272184E-2,-1.995883E-2,3.3167973E-2,2.6040121E-3,-3.9906773E-1,1.306628E-1,-7.099953E-4,-9.727031E-3,-1.2144144E-2,1.6530871E-2,-7.346245E-3,1.061192E-3,1.123368E0,-7.785636E-1,-1.4083412E-1,1.1578832E-1,5.4291148E-2,-2.21671E-3,6.678726E-3,1.3757638E0,-2.191242E-2,2.8787972E-3,-5.218143E-1,4.2662576E-1,2.1167956E-1,-2.9119235E-1,-2.074546E-1,9.414164E-1,-5.666453E-1,5.8921397E-2,3.4521256E-2,9.804219E-1,5.154576E-1,-1.3339318E-1,-1.3883919E-2,-6.5699255E-4,2.4156628E-2,-2.003582E-1,-1.3418095E-1,6.950042E-2,3.58629E-1,-2.2977678E-1,-1.370216E-1,1.4147516E-1,3.2373524E-1,9.603011E-1,-6.748102E-3],"categories":[],"categories_nodes":[],"categories_segments":[],"categories_sizes":[],"default_left":[0,0,0,0,0,0,0,0,0,0,0,0,0,0,0,0,0,0,0,0,0,0,0,0,0,0,0,0,0,0,0,0,0,0,0,0,0,0,0,0,0,0,0,0,0,0,0,0,0,0,0],"id":14,"left_children":[1,3,5,7,9,11,13,15,17,19,21,-1,23,-1,-1,25,27,29,31,33,-1,-1,-1,35,37,39,41,-1,-1,-1,-1,43,45,-1,-1,47,-1,-1,49,-1,-1,-1,-1,-1,-1,-1,-1,-1,-1,-1,-1],"loss_changes":[3.8555825E0,1.838859E1,3.038366E0,5.2683804E1,9.316956E0,1.1554375E0,1.4987162E0,7.547045E1,3.213188E1,1.2309532E0,1.2260453E-1,0E0,9.893188E1,0E0,0E0,4.142672E1,6.4842987E0,1.5525513E0,9.1317825E1,5.2244186E-2,0E0,0E0,0E0,5.2196274E0,2.4582634E1,1.709547E1,1.3452148E0,0E0,0E0,0E0,0E0,9.819061E0,2.7602425E0,0E0,0E0,7.968254E-1,0E0,0E0,1.9690012E2,0E0,0E0,0E0,0E0,0E0,0E0,0E0,0E0,0E0,0E0,0E0,0E0],"parents":[2147483647,0,0,1,1,2,2,3,3,4,4,5,5,6,6,7,7,8,8,9,9,10,10,12,12,15,15,16,16,17,17,18,18,19,19,23,23,24,24,25,25,26,26,31,31,32,32,35,35,38,38],"right_children":[2,4,6,8,10,12,14,16,18,20,22,-1,24,-1,-1,26,28,30,32,34,-1,-1,-1,36,38,40,42,-1,-1,-1,-1,44,46,-1,-1,48,-1,-1,50,-1,-1,-1,-1,-1,-1,-1,-1,-1,-1,-1,-1],"split_conditions":[7.202575E-1,6.980536E-1,2.0239487E0,4.2721188E-1,7.201829E-1,7.204064E-1,2.4533463E0,4.2199636E-1,4.966547E-1,1.3910414E0,1.3910414E0,-9.727031E-3,9.2717004E-1,1.6530871E-2,-7.346245E-3,3.6931816E-1,4.2236882E-1,-4.3156305E-1,6.084188E-1,7.20034E-1,5.4291148E-2,-2.21671E-3,6.678726E-3,9.066799E-1,1.0929534E0,3.4711426E-1,-4.3156305E-1,4.2662576E-1,2.1167956E-1,-2.9119235E-1,-2.074546E-1,5.330153E-1,-4.3156305E-1,5.8921397E-2,3.4521256E-2,8.6912715E-1,5.154576E-1,-1.3339318E-1,1.1458552E0,-6.5699255E-4,2.4156628E-2,-2.003582E-1,-1.3418095E-1,6.950042E-2,3.58629E-1,-2.2977678E-1,-1.370216E-1,1.4147516E-1,3.2373524E-1,9.603011E-1,-6.748102E-3],"split_indices":[1,1,1,1,1,1,1,1,1,0,0,0,1,0,0,1,1,0,1,1,0,0,0,1,1,1,0,0,0,0,0,1,0,0,0,1,0,0,1,0,0,0,0,0,0,0,0,0,0,0,0],"split_type":[0,0,0,0,0,0,0,0,0,0,0,0,0,0,0,0,0,0,0,0,0,0,0,0,0,0,0,0,0,0,0,0,0,0,0,0,0,0,0,0,0,0,0,0,0,0,0,0,0,0,0],"sum_hessian":[5.9491E4,4.6443E4,1.3048E4,4.3974E4,2.469E3,1.1865E4,1.183E3,4.3646E4,3.28E2,1.672E3,7.97E2,4.571E3,7.294E3,8.57E2,3.26E2,4.3587E4,5.9E1,1.32E2,1.96E2,1.293E3,3.79E2,6.18E2,1.79E2,5E1,7.244E3,4.3437E4,1.5E2,3.3E1,2.6E1,3.8E1,9.4E1,5.5E1,1.41E2,9E0,1.284E3,2.5E1,2.5E1,1.34E2,7.11E3,4.0776E4,2.661E3,4.8E1,1.02E2,1.5E1,4E1,4.8E1,9.3E1,5E0,2E1,1.8E1,7.092E3],"tree_param":{"num_deleted":"0","num_feature":"4","num_nodes":"51","size_leaf_vector":"1"}},{"base_weights":[6.435347E-5,6.8822075E-3,-6.979273E-3,-2.8381106E-2,8.625059E-3,-1.6902428E-2,2.2739742E-3,-1.5725362E-3,-5.057617E-2,2.7773046E-1,7.3766406E-3,-1.2879388E-2,-6.369721E-1,9.297127E-2,-3.8784072E-3,-4.563242E-2,1.655403E-1,-8.2458876E-2,-2.464197E-2,1.9694202E-1,2.7004105E-1,1.1985401E-2,-7.857382E-3,-1.7105315E-2,5.5308424E-2,-1.306036E0,-1.326238E-1,1.5298321E-2,5.0676174E-2,-3.878596E-2,4.919699E-3,-3.4921452E-2,-1.9171797E-2,5.3592885E-1,3.9458526E-3,-3.676676E-2,-2.8513307E-2,2.4027333E-1,-4.615371E-2,3.061153E-1,-9.813306E-2,9.328722E-3,2.4219904E-2,-2.2172121E-2,2.5230239E-3,-9.569253E-3,-6.3571316E-1,2.2574644E-1,3.691533E-2,-1.7011568E-1,-4.1228694E-1,6.6296923E-1,-5.96719E-1,-1.1601356E-3,-1.3268164E-2,3.3858757E-2,-1.1765446E-2,-1.6291019E-2,1.74312E-1,2.5783065E-1,1.2115445E-1,-3.891574E-2,1.15018964E-1,-3.3649534E-2,1.6361174E-1,4.0010735E-2,-1.9449327E-2,4.4219486E-2,1.9014686E-1,3.1808678E-3,-1.6225055E-1,-2.8604998E-3,-9.3564115E-2,6.73735E-1,-1.6911185E-3,-4.978964E-3,6.2484927E-2,-2.059683E-1,-8.6358726E-2,8.194873E-2,9.6140625E-3,-8.294202E-2,2.3481342E-1,-4.5697875E-2,-2.4078955E-1,4.8552817E-3,3.0542726E-2,-4.0699102E-4,-6.699449E-3],"categories":[],"categories_nodes":[],"categories_segments":[],"categories_sizes":[],"default_left":[0,0,0,0,0,0,0,0,0,0,0,0,0,0,0,0,0,0,0,0,0,0,0,0,0,0,0,0,0,0,0,0,0,0,0,0,0,0,0,0,0,0,0,0,0,0,0,0,0,0,0,0,0,0,0,0,0,0,0,0,0,0,0,0,0,0,0,0,0,0,0,0,0,0,0,0,0,0,0,0,0,0,0,0,0,0,0,0,0],"id":15,"left_children":[1,3,5,7,9,11,13,15,17,19,21,23,25,27,29,31,33,35,37,39,-1,41,43,45,47,49,51,-1,-1,53,55,57,-1,59,61,63,-1,-1,65,67,-1,69,-1,71,73,75,77,-1,79,-1,-1,81,83,-1,-1,85,87,-1,-1,-1,-1,-1,-1,-1,-1,-1,-1,-1,-1,-1,-1,-1,-1,-1,-1,-1,-1,-1,-1,-1,-1,-1,-1,-1,-1,-1,-1,-1,-1],"loss_changes":[2.8569977E0,1.8582036E0,2.6869164E0,8.4722614E-1,9.676176E0,3.5215057E1,8.45022E0,4.7640333E0,6.4208615E-1,6.510395E0,2.013435E0,4.043784E0,3.053394E1,3.0583525E0,4.3557715E0,9.798086E-2,8.078005E0,1.972003E-1,7.6911287E0,6.9084206E0,0E0,4.020255E0,9.8983264E-1,6.158651E1,1.0474497E1,1.1878052E0,1.9964846E1,0E0,0E0,5.4228544E-1,5.4701505E0,3.9115736E0,0E0,1.4048071E0,4.868064E0,3.4408815E0,0E0,0E0,1.4202664E0,5.0558395E0,0E0,1.4865585E1,0E0,1.0248047E1,7.070733E1,1.9987988E1,2.6146698E0,0E0,9.1022265E-1,0E0,0E0,2.466217E0,2.9889479E0,0E0,0E0,4.9740424E0,7.902859E-1,0E0,0E0,0E0,0E0,0E0,0E0,0E0,0E0,0E0,0E0,0E0,0E0,0E0,0E0,0E0,0E0,0E0,0E0,0E0,0E0,0E0,0E0,0E0,0E0,0E0,0E0,0E0,0E0,0E0,0E0,0E0,0E0],"parents":[2147483647,0,0,1,1,2,2,3,3,4,4,5,5,6,6,7,7,8,8,9,9,10,10,11,11,12,12,13,13,14,14,15,15,16,16,17,17,18,18,19,19,21,21,22,22,23,23,24,24,25,25,26,26,29,29,30,30,31,31,33,33,34,34,35,35,38,38,39,39,41,41,43,43,44,44,45,45,46,46,48,48,51,51,52,52,55,55,56,56],"right_children":[2,4,6,8,10,12,14,16,18,20,22,24,26,28,30,32,34,36,38,40,-1,42,44,46,48,50,52,-1,-1,54,56,58,-1,60,62,64,-1,-1,66,68,-1,70,-1,72,74,76,78,-1,80,-1,-1,82,84,-1,-1,86,88,-1,-1,-1,-1,-1,-1,-1,-1,-1,-1,-1,-1,-1,-1,-1,-1,-1,-1,-1,-1,-1,-1,-1,-1,-1,-1,-1,-1,-1,-1,-1,-1],"split_conditions":[4.797392E-1,-1.1871834E0,-2.5283718E-2,-1.2765201E0,-1.1424778E0,-1.738555E-1,-2.4836682E-2,-1.291571E0,-1.2171361E0,-1.1427013E0,7.201829E-1,-2.1133372E-1,-9.934609E-2,-2.5060201E-2,-2.4687631E-2,-1.3659315E0,-1.291422E0,-1.2187009E0,-1.2169871E0,-1.1573051E0,2.7004105E-1,6.980536E-1,9.4386005E-1,-3.227997E-1,-1.7400444E-1,-1.7378092E-1,-6.1942335E-2,1.5298321E-2,5.0676174E-2,-2.4762098E-2,7.201829E-1,-1.366006E0,-1.9171797E-2,-1.2914965E0,-1.2765946E0,-1.2467909E0,-2.8513307E-2,2.4027333E-1,-1.2169126E0,-1.1574541E0,-9.813306E-2,6.685479E-1,2.4219904E-2,9.2717004E-1,1.1458552E0,-3.2309783E-1,-2.861411E-1,2.2574644E-1,-1.7392996E-1,-1.7011568E-1,-4.1228694E-1,-8.459314E-2,-3.213857E-2,-1.1601356E-3,-1.3268164E-2,6.980536E-1,1.3910414E0,-1.6291019E-2,1.74312E-1,2.5783065E-1,1.2115445E-1,-3.891574E-2,1.15018964E-1,-3.3649534E-2,1.6361174E-1,4.0010735E-2,-1.9449327E-2,4.4219486E-2,1.9014686E-1,3.1808678E-3,-1.6225055E-1,-2.8604998E-3,-9.3564115E-2,6.73735E-1,-1.6911185E-3,-4.978964E-3,6.2484927E-2,-2.059683E-1,-8.6358726E-2,8.194873E-2,9.6140625E-3,-8.294202E-2,2.3481342E-1,-4.5697875E-2,-2.4078955E-1,4.8552817E-3,3.0542726E-2,-4.0699102E-4,-6.699449E-3],"split_indices":[0,1,1,1,1,1,1,1,1,1,1,1,1,1,1,1,1,1,1,1,0,1,1,1,1,1,1,0,0,1,1,1,0,1,1,1,0,0,1,1,0,1,0,1,1,1,1,0,1,0,0,1,1,0,0,1,0,0,0,0,0,0,0,0,0,0,0,0,0,0,0,0,0,0,0,0,0,0,0,0,0,0,0,0,0,0,0,0,0],"split_type":[0,0,0,0,0,0,0,0,0,0,0,0,0,0,0,0,0,0,0,0,0,0,0,0,0,0,0,0,0,0,0,0,0,0,0,0,0,0,0,0,0,0,0,0,0,0,0,0,0,0,0,0,0,0,0,0,0,0,0,0,0,0,0,0,0,0,0,0,0,0,0,0,0,0,0,0,0,0,0,0,0,0,0,0,0,0,0,0,0],"sum_hessian":[5.9491E4,3.023E4,2.9261E4,1.423E3,2.8807E4,1.4119E4,1.5142E4,6.45E2,7.78E2,1.32E2,2.8675E4,1.4029E4,9E1,9.61E2,1.4181E4,5.11E2,1.34E2,3.48E2,4.3E2,1.18E2,1.4E1,2.2015E4,6.66E3,1.3211E4,8.18E2,3.8E1,5.2E1,6.2E2,3.41E2,2.854E3,1.1327E4,3.24E2,1.87E2,4E1,9.4E1,7.6E1,2.72E2,1E1,4.2E2,9.8E1,2E1,2.1197E4,8.18E2,2.799E3,3.861E3,1.3053E4,1.58E2,2E1,7.98E2,4E0,3.4E1,1.9E1,3.3E1,3.85E2,2.469E3,4.142E3,7.185E3,3.15E2,9E0,1E1,3E1,7E1,2.4E1,6.8E1,8E0,3.9E1,3.81E2,6.7E1,3.1E1,2.1149E4,4.8E1,2.683E3,1.16E2,1.3E1,3.848E3,1.2646E4,4.07E2,1.37E2,2.1E1,1.5E1,7.83E2,2E0,1.7E1,1.1E1,2.2E1,3.288E3,8.54E2,3.62E3,3.565E3],"tree_param":{"num_deleted":"0","num_feature":"4","num_nodes":"89","size_leaf_vector":"1"}},{"base_weights":[6.6016604E-5,-1.4488649E-2,2.1908719E-3,-1.189268E-2,-3.5056102E-1,2.8043973E-1,-2.1485832E-4,-9.692753E-3,-7.1243554E-2,1.8301538E-1,5.754774E-1,-7.258586E-2,1.1722938E-3,-1.391281E-2,2.4550797E-1,4.709665E-1,-2.7610635E-2,2.8513756E-1,7.760455E-2,1.620995E-2,-1.433621E-1,1.1428114E0,-2.536184E-4,-5.699237E-3,-4.282372E-2,1.2729375E-1,4.676667E-1,-9.289523E-3,-6.842806E-3,3.3948394E-3,2.787808E-1,2.3594014E-1,5.1850396E-1,-5.1853865E-1,5.181494E-4,-4.1121393E-3,1.193592E-1,-1.4009875E-2,-1.1517748E-2,2.2154494E-1,-5.526927E-2,7.126416E-3,-2.75337E-1,9.3546644E-2,-2.6073006E-1,9.520779E-2,-3.377651E-4],"categories":[],"categories_nodes":[],"categories_segments":[],"categories_sizes":[],"default_left":[0,0,0,0,0,0,0,0,0,0,0,0,0,0,0,0,0,0,0,0,0,0,0,0,0,0,0,0,0,0,0,0,0,0,0,0,0,0,0,0,0,0,0,0,0,0,0],"id":16,"left_children":[1,3,5,7,-1,9,11,13,-1,15,17,19,21,23,-1,25,27,-1,-1,29,-1,31,33,35,37,39,-1,-1,-1,41,-1,-1,-1,43,45,-1,-1,-1,-1,-1,-1,-1,-1,-1,-1,-1,-1],"loss_changes":[1.8399144E0,2.269181E1,3.475086E1,3.751007E0,0E0,1.2685696E1,5.167137E0,2.6188156E1,0E0,2.03914E1,1.2821297E1,3.4843994E1,8.2212975E1,1.7697967E0,0E0,5.2893837E1,2.4342984E-3,0E0,0E0,9.299106E0,0E0,1.17857895E1,2.0176455E1,1.8768654E1,2.6528597E-2,2.0889711E1,0E0,0E0,0E0,1.4744643E1,0E0,0E0,0E0,2.2102943E1,2.623639E1,0E0,0E0,0E0,0E0,0E0,0E0,0E0,0E0,0E0,0E0,0E0,0E0],"parents":[2147483647,0,0,1,1,2,2,3,3,5,5,6,6,7,7,9,9,10,10,11,11,12,12,13,13,15,15,16,16,19,19,21,21,22,22,23,23,24,24,25,25,29,29,33,33,34,34],"right_children":[2,4,6,8,-1,10,12,14,-1,16,18,20,22,24,-1,26,28,-1,-1,30,-1,32,34,36,38,40,-1,-1,-1,42,-1,-1,-1,44,46,-1,-1,-1,-1,-1,-1,-1,-1,-1,-1,-1,-1],"split_conditions":[-1.0233372E0,-1.0305647E0,-9.189495E-1,-1.0381646E0,-3.5056102E-1,-9.1917306E-1,-8.5949105E-1,-1.0383136E0,-7.1243554E-2,-9.5627874E-1,-9.1909856E-1,-8.8601637E-1,-8.445146E-1,-1.0678939E0,2.4550797E-1,-9.564278E-1,4.797392E-1,2.8513756E-1,7.760455E-2,-8.892203E-1,-1.433621E-1,-8.446637E-1,-8.442911E-1,-1.0681174E0,4.797392E-1,-9.934589E-1,4.676667E-1,-9.289523E-3,-6.842806E-3,-9.1887504E-1,2.787808E-1,2.3594014E-1,5.1850396E-1,-8.444401E-1,-7.7007973E-1,-4.1121393E-3,1.193592E-1,-1.4009875E-2,-1.1517748E-2,2.2154494E-1,-5.526927E-2,7.126416E-3,-2.75337E-1,9.3546644E-2,-2.6073006E-1,9.520779E-2,-3.377651E-4],"split_indices":[1,1,1,1,0,1,1,1,0,1,1,1,1,1,0,1,0,0,0,1,0,1,1,1,0,1,0,0,0,1,0,0,0,1,1,0,0,0,0,0,0,0,0,0,0,0,0],"split_type":[0,0,0,0,0,0,0,0,0,0,0,0,0,0,0,0,0,0,0,0,0,0,0,0,0,0,0,0,0,0,0,0,0,0,0,0,0,0,0,0,0,0,0,0,0,0,0],"sum_hessian":[5.9491E4,7.578E3,5.1913E4,7.562E3,1.6E1,4.44E2,5.1469E4,7.49E3,7.2E1,3.35E2,1.09E2,9.67E2,5.0502E4,7.453E3,3.7E1,1.41E2,1.94E2,4.9E1,6E1,7.94E2,1.73E2,6.2E1,5.044E4,5.805E3,1.648E3,1.08E2,3.3E1,1.11E2,8.3E1,7.84E2,1E1,4E1,2.2E1,7.4E1,5.0366E4,5.693E3,1.12E2,8.74E2,7.74E2,3.6E1,7.2E1,7.68E2,1.6E1,2.2E1,5.2E1,2.59E2,5.0107E4],"tree_param":{"num_deleted":"0","num_feature":"4","num_nodes":"47","size_leaf_vector":"1"}},{"base_weights":[7.045428E-5,-6.6274153E-3,4.4638608E-3,6.5567405E-3,-1.7760733E-2,6.957398E-1,3.3459777E-3,-1.0469843E-2,4.8341714E-2,-6.647271E-2,-3.5824482E-3,3.0300233E-1,1.4702223E-1,-2.8802416E-1,3.9102347E-3,-8.475008E-3,-3.3009797E-1,9.4012964E-1,3.264491E-2,6.44213E-2,-2.089004E-2,2.6010808E-2,-2.2353E-3,-1.0153489E-2,1.5902078E-1,1.8853968E-1,3.3149314E-1,1.3450499E-1,2.144617E-2,1.3865755E-2,1.4339301E-1,-5.3940214E-2,-1.3921936E-2,1.3874546E-2,1.4406571E-1,-3.4263194E-2,6.1583077E-3,-2.4869954E-3,-2.5157905E-1,1.5687774E-1,-5.4470066E-2,-5.82305E-3,1.21839546E-1,-1.5284197E-2,1.8103277E-2,8.08959E-3,-2.1755903E-3,2.5431463E-1,3.29197E-2,-1.5101814E-2,-1.1956971E-1,5.873431E-2,-6.4287647E-3,1.0488956E-2,-2.8656987E-3,4.9842313E-2,3.5618708E-2,-1.3891723E-3,-1.1698074E-2,2.4581928E-2,2.1513681E-4],"categories":[],"categories_nodes":[],"categories_segments":[],"categories_sizes":[],"default_left":[0,0,0,0,0,0,0,0,0,0,0,0,0,0,0,0,0,0,0,0,0,0,0,0,0,0,0,0,0,0,0,0,0,0,0,0,0,0,0,0,0,0,0,0,0,0,0,0,0,0,0,0,0,0,0,0,0,0,0,0,0],"id":17,"left_children":[1,3,5,7,9,11,13,15,17,-1,19,-1,-1,-1,21,23,-1,25,27,29,31,33,35,37,39,-1,-1,41,43,45,47,49,51,53,55,57,59,-1,-1,-1,-1,-1,-1,-1,-1,-1,-1,-1,-1,-1,-1,-1,-1,-1,-1,-1,-1,-1,-1,-1,-1],"loss_changes":[1.7506689E0,3.4592137E0,2.776083E1,7.6771097E0,3.6921497E1,3.2538013E0,1.9503403E1,1.6659376E1,4.3699757E1,0E0,1.4062741E1,0E0,0E0,0E0,4.8691993E0,2.1534483E0,0E0,2.0799255E0,3.5002184E0,9.675729E0,2.1925983E0,1.1173412E1,7.541149E0,1.1693573E1,9.514505E0,0E0,0E0,1.2717358E1,7.7976747E0,4.0933502E-1,2.2334719E1,2.0374146E0,1.2389202E1,3.4951797E0,3.868971E-1,8.1633186E-1,9.165042E0,0E0,0E0,0E0,0E0,0E0,0E0,0E0,0E0,0E0,0E0,0E0,0E0,0E0,0E0,0E0,0E0,0E0,0E0,0E0,0E0,0E0,0E0,0E0,0E0],"parents":[2147483647,0,0,1,1,2,2,3,3,4,4,5,5,6,6,7,7,8,8,10,10,14,14,15,15,17,17,18,18,19,19,20,20,21,21,22,22,23,23,24,24,27,27,28,28,29,29,30,30,31,31,32,32,33,33,34,34,35,35,36,36],"right_children":[2,4,6,8,10,12,14,16,18,-1,20,-1,-1,-1,22,24,-1,26,28,30,32,34,36,38,40,-1,-1,42,44,46,48,50,52,54,56,58,60,-1,-1,-1,-1,-1,-1,-1,-1,-1,-1,-1,-1,-1,-1,-1,-1,-1,-1,-1,-1,-1,-1,-1,-1],"split_conditions":[-4.7211665E-1,-7.698562E-1,-4.7174406E-1,-9.7870606E-1,-7.697817E-1,-4.7204205E-1,-4.4216383E-1,-9.933099E-1,-9.5627874E-1,-6.647271E-2,-6.209119E-1,3.0300233E-1,1.4702223E-1,-2.8802416E-1,-2.4836682E-2,-1.0233372E0,-3.3009797E-1,-9.564278E-1,-9.189495E-1,-7.3275054E-1,-6.207629E-1,-2.5060201E-2,-2.4687631E-2,-1.0305647E0,-9.934589E-1,1.8853968E-1,3.3149314E-1,-9.1917306E-1,-8.5949105E-1,-3.7499642E-1,-7.1017414E-1,-6.208374E-1,-5.614534E-1,-3.228743E-1,4.797392E-1,-2.4762098E-2,5.6155123E-2,-2.4869954E-3,-2.5157905E-1,1.5687774E-1,-5.4470066E-2,-5.82305E-3,1.21839546E-1,-1.5284197E-2,1.8103277E-2,8.08959E-3,-2.1755903E-3,2.5431463E-1,3.29197E-2,-1.5101814E-2,-1.1956971E-1,5.873431E-2,-6.4287647E-3,1.0488956E-2,-2.8656987E-3,4.9842313E-2,3.5618708E-2,-1.3891723E-3,-1.1698074E-2,2.4581928E-2,2.1513681E-4],"split_indices":[1,1,1,1,1,1,1,1,1,0,1,0,0,0,1,1,0,1,1,1,1,1,1,1,1,0,0,1,1,2,1,1,1,1,0,1,1,0,0,0,0,0,0,0,0,0,0,0,0,0,0,0,0,0,0,0,0,0,0,0,0],"split_type":[0,0,0,0,0,0,0,0,0,0,0,0,0,0,0,0,0,0,0,0,0,0,0,0,0,0,0,0,0,0,0,0,0,0,0,0,0,0,0,0,0,0,0,0,0,0,0,0,0,0,0,0,0,0,0,0,0,0,0,0,0],"sum_hessian":[5.9491E4,2.3565E4,3.5926E4,1.0789E4,1.2776E4,5.7E1,3.5869E4,7.666E3,3.123E3,8.3E2,1.1946E4,2.1E1,3.6E1,2E1,3.5849E4,7.653E3,1.3E1,5.3E1,3.07E3,2.423E3,9.523E3,7.799E3,2.805E4,7.578E3,7.5E1,2E1,3.3E1,3.03E2,2.767E3,1.478E3,9.45E2,1.657E3,7.866E3,7.073E3,7.26E2,5.824E3,2.2226E4,7.562E3,1.6E1,3.6E1,3.9E1,1.94E2,1.09E2,9.67E2,1.8E3,9.12E2,5.66E2,4.2E1,9.03E2,1.641E3,1.6E1,2.71E2,7.595E3,3.722E3,3.351E3,3.85E2,3.41E2,8.02E2,5.022E3,1.488E3,2.0738E4],"tree_param":{"num_deleted":"0","num_feature":"4","num_nodes":"61","size_leaf_vector":"1"}},{"base_weights":[5.887214E-5,4.8243557E-3,-4.8644207E-3,-1.5272221E-3,1.0872112E-2,-1.21249845E-2,1.8994872E-3,7.956479E-3,-1.2547056E-2,5.1385206E-3,2.1468343E-2,-9.230877E-3,-4.9536544E-1,5.4938063E-2,-1.7245627E-3,-2.079167E-3,6.637575E-2,-3.9185297E-2,-1.8366274E-3,1.1676308E-2,-1.0609442E-2,5.366016E-2,1.8151578E-3,-1.2424724E-2,4.2303108E-2,-9.2603713E-1,-1.1946192E-1,3.9451685E-2,2.496432E-2,6.7718094E-3,-1.0886796E-2,-2.6486527E-2,1.0051123E-3,1.8182662E-1,5.4460805E-2,-6.5549617E-3,-8.6307965E-2,4.8737338E-1,-5.277824E-3,3.2299948E-3,5.141138E-2,3.4503207E-2,8.203089E-2,-1.7239105E-2,1.5515849E-2,-6.966803E-3,-4.3615183E-1,1.6216265E-1,2.9155018E-2,-1.2851904E-1,-2.9120114E-1,2.646552E-1,-2.5686675E-1,2.2757709E-2,1.1675743E-2,-1.6524678E-2,1.3267742E-2,1.0641225E-2,-2.3903297E-2,-2.2834092E-3,-1.8018177E-2,1.6992363E-1,7.5320626E-5,-6.7170872E-3,2.15323E-2,-3.1420223E-3,2.231708E-1,4.537195E-2,1.6203368E-1,1.2528515E-2,-5.399253E-3,5.6126756E-3,-3.8647915E-3,1.799326E-1,1.3216734E-2,1.3422146E-2,-2.5780082E-1,3.4023747E-2,1.6925622E-2,-6.5695134E-4,-5.9112576E-3,3.614526E-1,4.2881304E-4,-3.5380214E-3,4.3811448E-2,-1.4045173E-1,-6.0711343E-2,5.9801664E-2,7.693407E-3,1.4241464E-1,-3.2249946E-2,-2.955993E-4,-5.678261E-3,1.1150046E-2,-2.4816126E-4,-1.2418306E-3,1.7395424E-2,-8.05925E-2,-1.4182855E-3],"categories":[],"categories_nodes":[],"categories_segments":[],"categories_sizes":[],"default_left":[0,0,0,0,0,0,0,0,0,0,0,0,0,0,0,0,0,0,0,0,0,0,0,0,0,0,0,0,0,0,0,0,0,0,0,0,0,0,0,0,0,0,0,0,0,0,0,0,0,0,0,0,0,0,0,0,0,0,0,0,0,0,0,0,0,0,0,0,0,0,0,0,0,0,0,0,0,0,0,0,0,0,0,0,0,0,0,0,0,0,0,0,0,0,0,0,0,0,0],"id":18,"left_children":[1,3,5,7,9,11,13,15,17,19,21,23,25,27,29,31,33,35,37,39,-1,41,43,45,47,49,51,53,-1,55,57,59,61,-1,63,65,-1,67,69,71,73,75,77,79,81,83,85,-1,87,-1,-1,89,-1,-1,-1,91,93,95,97,-1,-1,-1,-1,-1,-1,-1,-1,-1,-1,-1,-1,-1,-1,-1,-1,-1,-1,-1,-1,-1,-1,-1,-1,-1,-1,-1,-1,-1,-1,-1,-1,-1,-1,-1,-1,-1,-1,-1,-1],"loss_changes":[1.395817E0,1.1612737E0,1.4370736E0,1.5411867E0,9.407332E-1,1.9733158E1,2.9121437E0,4.6469536E0,1.9460068E0,2.6616743E0,3.439739E0,2.3097465E0,1.34882145E1,4.2104006E-1,1.1040822E0,5.0928986E-1,7.439403E0,1.5859117E1,8.194327E0,2.9042444E0,0E0,1.1173172E0,8.818555E-1,3.0551943E1,5.34942E0,4.5040894E-1,1.3244711E1,9.223521E-3,0E0,1.1138746E0,1.9124722E0,4.8053312E-1,2.5608912E0,0E0,1.5157886E0,5.0950766E0,0E0,5.210428E-1,2.892472E0,1.7805026E0,6.092466E0,1.1311843E1,6.6071415E-1,5.2375942E-2,3.2918728E1,9.635373E0,1.1628685E0,0E0,4.7221136E-1,0E0,0E0,2.4744565E0,0E0,0E0,0E0,5.9910208E-2,1.9386382E0,1.8000443E0,1.9958164E1,0E0,0E0,0E0,0E0,0E0,0E0,0E0,0E0,0E0,0E0,0E0,0E0,0E0,0E0,0E0,0E0,0E0,0E0,0E0,0E0,0E0,0E0,0E0,0E0,0E0,0E0,0E0,0E0,0E0,0E0,0E0,0E0,0E0,0E0,0E0,0E0,0E0,0E0,0E0,0E0],"parents":[2147483647,0,0,1,1,2,2,3,3,4,4,5,5,6,6,7,7,8,8,9,9,10,10,11,11,12,12,13,13,14,14,15,15,16,16,17,17,18,18,19,19,21,21,22,22,23,23,24,24,25,25,26,26,27,27,29,29,30,30,31,31,32,32,34,34,35,35,37,37,38,38,39,39,40,40,41,41,42,42,43,43,44,44,45,45,46,46,48,48,51,51,55,55,56,56,57,57,58,58],"right_children":[2,4,6,8,10,12,14,16,18,20,22,24,26,28,30,32,34,36,38,40,-1,42,44,46,48,50,52,54,-1,56,58,60,62,-1,64,66,-1,68,70,72,74,76,78,80,82,84,86,-1,88,-1,-1,90,-1,-1,-1,92,94,96,98,-1,-1,-1,-1,-1,-1,-1,-1,-1,-1,-1,-1,-1,-1,-1,-1,-1,-1,-1,-1,-1,-1,-1,-1,-1,-1,-1,-1,-1,-1,-1,-1,-1,-1,-1,-1,-1,-1,-1,-1],"split_conditions":[4.797392E-1,-4.3156305E-1,-2.543277E-2,-2.4836682E-2,-2.4687631E-2,-1.738555E-1,-2.4836682E-2,-3.2309783E-1,1.2343711E-1,-2.4762098E-2,7.201829E-1,-2.1133372E-1,-9.934609E-2,-2.5060201E-2,1.3910414E0,-1.2171361E0,-3.2302326E-1,5.6155123E-2,2.73052E-1,-3.2309783E-1,-1.0609442E-2,3.478594E-1,7.2033185E-1,-3.228743E-1,-1.7400444E-1,-1.7378092E-1,-3.213857E-2,-2.5283718E-2,2.496432E-2,-2.4687631E-2,3.6931816E-1,-1.2187009E0,-1.2169871E0,1.8182662E-1,-2.861411E-1,4.9747307E-2,-8.6307965E-2,1.6121332E-1,3.6931816E-1,-6.209119E-1,-3.2302326E-1,3.4778494E-1,7.192888E-1,7.202575E-1,1.1458552E0,-3.2309783E-1,-2.861411E-1,1.6216265E-1,-1.7392996E-1,-1.2851904E-1,-2.9120114E-1,-6.1942335E-2,-2.5686675E-1,2.2757709E-2,1.1675743E-2,-2.4762098E-2,7.201829E-1,2.7335E-1,6.980536E-1,-2.2834092E-3,-1.8018177E-2,1.6992363E-1,7.5320626E-5,-6.7170872E-3,2.15323E-2,-3.1420223E-3,2.231708E-1,4.537195E-2,1.6203368E-1,1.2528515E-2,-5.399253E-3,5.6126756E-3,-3.8647915E-3,1.799326E-1,1.3216734E-2,1.3422146E-2,-2.5780082E-1,3.4023747E-2,1.6925622E-2,-6.5695134E-4,-5.9112576E-3,3.614526E-1,4.2881304E-4,-3.5380214E-3,4.3811448E-2,-1.4045173E-1,-6.0711343E-2,5.9801664E-2,7.693407E-3,1.4241464E-1,-3.2249946E-2,-2.955993E-4,-5.678261E-3,1.1150046E-2,-2.4816126E-4,-1.2418306E-3,1.7395424E-2,-8.05925E-2,-1.4182855E-3],"split_indices":[0,0,1,1,1,1,1,1,1,1,1,1,1,1,0,1,1,1,1,1,0,1,1,1,1,1,1,1,0,1,1,1,1,0,1,1,0,1,1,1,1,1,1,1,1,1,1,0,1,0,0,1,0,0,0,1,1,1,1,0,0,0,0,0,0,0,0,0,0,0,0,0,0,0,0,0,0,0,0,0,0,0,0,0,0,0,0,0,0,0,0,0,0,0,0,0,0,0,0],"split_type":[0,0,0,0,0,0,0,0,0,0,0,0,0,0,0,0,0,0,0,0,0,0,0,0,0,0,0,0,0,0,0,0,0,0,0,0,0,0,0,0,0,0,0,0,0,0,0,0,0,0,0,0,0,0,0,0,0,0,0,0,0,0,0,0,0,0,0,0,0,0,0,0,0,0,0,0,0,0,0,0,0,0,0,0,0,0,0,0,0,0,0,0,0,0,0,0,0,0,0],"sum_hessian":[5.9491E4,3.023E4,2.9261E4,1.4745E4,1.5485E4,1.4112E4,1.5149E4,7.925E3,6.82E3,1.0049E4,5.436E3,1.4029E4,8.3E1,9.68E2,1.4181E4,6.764E3,1.161E3,1.955E3,4.865E3,8.653E3,1.396E3,2.06E3,3.376E3,1.3211E4,8.18E2,3.8E1,4.5E1,6.27E2,3.41E2,7.358E3,6.823E3,7.58E2,6.006E3,2.4E1,1.137E3,1.729E3,2.26E2,3.3E1,4.832E3,7.137E3,1.516E3,1.231E3,8.29E2,1.412E3,1.964E3,1.3044E4,1.67E2,2E1,7.98E2,4E0,3.4E1,3E1,1.5E1,7E0,6.2E2,1.604E3,5.754E3,2.571E3,4.252E3,4.86E2,2.72E2,7E0,5.999E3,2.09E2,9.28E2,1.721E3,8E0,5E0,2.8E1,1.028E3,3.804E3,3.64E3,3.497E3,1.9E1,1.497E3,1.218E3,1.3E1,3.71E2,4.58E2,1.99E2,1.213E3,2.2E1,1.942E3,1.2646E4,3.98E2,1.46E2,2.1E1,1.5E1,7.83E2,1.9E1,1.1E1,2.15E2,1.389E3,2.134E3,3.62E3,1.96E3,6.11E2,3.08E2,3.944E3],"tree_param":{"num_deleted":"0","num_feature":"4","num_nodes":"99","size_leaf_vector":"1"}},{"base_weights":[5.0315164E-5,-5.226035E-4,2.8265065E-2,1.3254109E-3,-1.6503377E-2,4.2494E-2,-2.746802E-3,-1.283158E-4,9.1414586E-2,-1.7208807E-2,-5.5761295E-3,4.1281004E-2,1.3987727E-2,9.7636034E-4,-2.5613767E-1,1.3106303E-1,2.5226241E-2,-1.8384011E-2,-3.919809E-3,3.043665E-1,-6.715697E-3,1.3678382E-2,1.1886698E-2,3.458762E-4,5.099642E-1,-8.287148E-2,1.1497823E-2,-4.227969E-3,-6.0720653E-3,3.9157655E-2,1.4810577E-1,2.8327704E-4,-6.7799896E-2,7.057257E-2,-4.942744E-2],"categories":[],"categories_nodes":[],"categories_segments":[],"categories_sizes":[],"default_left":[0,0,0,0,0,0,0,0,0,0,0,0,0,0,0,0,0,0,0,0,0,0,0,0,0,0,0,0,0,0,0,0,0,0,0],"id":19,"left_children":[1,3,5,7,9,11,-1,13,15,17,19,21,-1,23,25,-1,-1,27,-1,29,-1,-1,-1,31,-1,-1,-1,-1,-1,33,-1,-1,-1,-1,-1],"loss_changes":[9.616885E-1,1.7220442E0,6.308239E-1,6.845031E0,4.649353E-2,2.3754835E-3,0E0,1.4547016E1,2.0641942E0,2.7398944E-2,1.9240893E0,3.0015707E-3,0E0,5.4859596E1,1.3186626E0,0E0,0E0,3.491819E-2,0E0,9.3464303E-1,0E0,0E0,0E0,6.934645E0,0E0,0E0,0E0,0E0,0E0,3.9862E-1,0E0,0E0,0E0,0E0,0E0],"parents":[2147483647,0,0,1,1,2,2,3,3,4,4,5,5,7,7,8,8,9,9,10,10,11,11,13,13,14,14,17,17,19,19,23,23,29,29],"right_children":[2,4,6,8,10,12,-1,14,16,18,20,22,-1,24,26,-1,-1,28,-1,30,-1,-1,-1,32,-1,-1,-1,-1,-1,34,-1,-1,-1,-1,-1],"split_conditions":[2.0239487E0,1.4653516E0,2.4533463E0,1.4651281E0,1.4655005E0,1.3910414E0,-2.746802E-3,1.1458552E0,1.4652025E0,1.3910414E0,1.8532475E0,-4.3156305E-1,1.3987727E-2,1.0929534E0,1.1671648E0,1.3106303E-1,2.5226241E-2,-4.3156305E-1,-3.919809E-3,1.8376751E0,-6.715697E-3,1.3678382E-2,1.1886698E-2,9.2717004E-1,5.099642E-1,-8.287148E-2,1.1497823E-2,-4.227969E-3,-6.0720653E-3,3.1685665E-1,1.4810577E-1,2.8327704E-4,-6.7799896E-2,7.057257E-2,-4.942744E-2],"split_indices":[1,1,1,1,1,0,0,1,1,0,1,0,0,1,1,0,0,0,0,1,0,0,0,1,0,0,0,0,0,3,0,0,0,0,0],"split_type":[0,0,0,0,0,0,0,0,0,0,0,0,0,0,0,0,0,0,0,0,0,0,0,0,0,0,0,0,0,0,0,0,0,0,0],"sum_hessian":[5.9491E4,5.8308E4,1.183E3,5.2265E4,6.043E3,8.57E2,3.26E2,5.1436E4,8.29E2,5.676E3,3.67E2,6.71E2,1.86E2,5.1216E4,2.2E2,1.6E1,8.13E2,4.419E3,1.257E3,1.8E1,3.49E2,1.79E2,4.92E2,5.1198E4,1.8E1,2.06E2,1.4E1,1.337E3,3.082E3,8E0,1E1,5.1064E4,1.34E2,4E0,4E0],"tree_param":{"num_deleted":"0","num_feature":"4","num_nodes":"35","size_leaf_vector":"1"}},{"base_weights":[4.7226473E-5,-3.9733234E-3,3.2870965E-3,4.9146274E-3,-1.0058546E-2,1.4675358E-1,1.8076946E-3,-6.9265086E-3,3.3973873E-2,-1.5521325E-1,-1.9780572E-3,8.429617E-2,-3.8390404E-5,-5.486115E-3,-2.3817466E-1,6.681233E-1,2.281202E-2,-4.8682805E-2,-4.429099E-2,4.5120057E-2,-1.11067835E-2,1.3117853E-1,9.756243E-3,-4.1653383E-1,2.4917538E-3,-6.6645737E-3,1.12106316E-1,1.3456205E-1,2.3522927E-1,9.41922E-2,1.4964337E-2,8.115146E-3,1.2295738E-1,-3.5299174E-2,-7.4085537E-3,4.248469E-2,3.657686E-2,-6.760589E-1,-3.2895738E-1,1.9497627E-1,1.8203233E-3,-1.5975295E-3,-1.8065451E-1,1.1104644E-1,-3.8817354E-2,-4.2162547E-3,8.556817E-2,-1.06754415E-2,1.2637543E-2,8.064751E-3,-3.2279682E-1,2.7310267E-1,1.6851112E-2,-9.814296E-3,-8.486681E-2,3.6737535E-2,-3.586311E-3,-5.1560022E-2,-2.0827322E-1,-4.460927E-2,-1.0835805E-1,-5.355263E-2,1.22371376E-1,6.572372E-3,-2.6491625E-4],"categories":[],"categories_nodes":[],"categories_segments":[],"categories_sizes":[],"default_left":[0,0,0,0,0,0,0,0,0,0,0,0,0,0,0,0,0,0,0,0,0,0,0,0,0,0,0,0,0,0,0,0,0,0,0,0,0,0,0,0,0,0,0,0,0,0,0,0,0,0,0,0,0,0,0,0,0,0,0,0,0,0,0,0,0],"id":20,"left_children":[1,3,5,7,9,-1,11,13,15,17,19,21,23,25,-1,27,29,-1,-1,31,33,35,-1,37,39,41,43,-1,-1,45,47,49,51,53,55,-1,-1,57,59,61,63,-1,-1,-1,-1,-1,-1,-1,-1,-1,-1,-1,-1,-1,-1,-1,-1,-1,-1,-1,-1,-1,-1,-1,-1],"loss_changes":[7.7495944E-1,1.4359021E0,2.3680927E1,3.7130144E0,1.8483753E1,0E0,5.0018163E0,8.686755E0,2.2097311E1,2.0511627E-2,6.4191613E0,1.7409992E0,3.3857315E1,1.0614216E0,0E0,1.0234642E0,1.7188691E0,0E0,0E0,6.9810023E0,1.1186379E0,1.9152641E-2,0E0,4.1868935E0,4.1269226E0,6.0424147E0,4.784067E0,0E0,0E0,6.2903786E0,3.8018389E0,3.3477375E1,4.101937E1,1.0518401E0,6.406187E0,0E0,0E0,3.2078552E-1,8.004894E-1,8.900148E0,1.7282541E0,0E0,0E0,0E0,0E0,0E0,0E0,0E0,0E0,0E0,0E0,0E0,0E0,0E0,0E0,0E0,0E0,0E0,0E0,0E0,0E0,0E0,0E0,0E0,0E0],"parents":[2147483647,0,0,1,1,2,2,3,3,4,4,6,6,7,7,8,8,9,9,10,10,11,11,12,12,13,13,15,15,16,16,19,19,20,20,21,21,23,23,24,24,25,25,26,26,29,29,30,30,31,31,32,32,33,33,34,34,37,37,38,38,39,39,40,40],"right_children":[2,4,6,8,10,-1,12,14,16,18,20,22,24,26,-1,28,30,-1,-1,32,34,36,-1,38,40,42,44,-1,-1,46,48,50,52,54,56,-1,-1,58,60,62,64,-1,-1,-1,-1,-1,-1,-1,-1,-1,-1,-1,-1,-1,-1,-1,-1,-1,-1,-1,-1,-1,-1,-1,-1],"split_conditions":[-3.2309783E-1,-7.698562E-1,-3.2302326E-1,-9.7870606E-1,-7.697817E-1,1.4675358E-1,-3.228743E-1,-9.933099E-1,-9.5627874E-1,4.797392E-1,-6.209119E-1,4.797392E-1,-2.861411E-1,-1.0233372E0,-2.3817466E-1,-9.564278E-1,-9.189495E-1,-4.8682805E-2,-4.429099E-2,-6.9527227E-1,-6.207629E-1,-4.3156305E-1,9.756243E-3,4.797392E-1,-1.7392996E-1,-1.0305647E0,-9.934589E-1,1.3456205E-1,2.3522927E-1,-9.1917306E-1,-8.5949105E-1,-6.9534683E-1,-6.209864E-1,-6.208374E-1,-5.4632795E-1,4.248469E-2,3.657686E-2,-3.227997E-1,1.3910414E0,-2.1133372E-1,-2.4836682E-2,-1.5975295E-3,-1.8065451E-1,1.1104644E-1,-3.8817354E-2,-4.2162547E-3,8.556817E-2,-1.06754415E-2,1.2637543E-2,8.064751E-3,-3.2279682E-1,2.7310267E-1,1.6851112E-2,-9.814296E-3,-8.486681E-2,3.6737535E-2,-3.586311E-3,-5.1560022E-2,-2.0827322E-1,-4.460927E-2,-1.0835805E-1,-5.355263E-2,1.22371376E-1,6.572372E-3,-2.6491625E-4],"split_indices":[1,1,1,1,1,0,1,1,1,0,1,0,1,1,0,1,1,0,0,1,1,0,0,0,1,1,1,0,0,1,1,1,1,1,1,0,0,1,0,1,1,0,0,0,0,0,0,0,0,0,0,0,0,0,0,0,0,0,0,0,0,0,0,0,0],"split_type":[0,0,0,0,0,0,0,0,0,0,0,0,0,0,0,0,0,0,0,0,0,0,0,0,0,0,0,0,0,0,0,0,0,0,0,0,0,0,0,0,0,0,0,0,0,0,0,0,0,0,0,0,0,0,0,0,0,0,0,0,0,0,0,0,0],"sum_hessian":[5.9491E4,2.6547E4,3.2944E4,1.0789E4,1.5758E4,9.9E1,3.2845E4,7.666E3,3.123E3,8.3E2,1.4928E4,7.18E2,3.2127E4,7.653E3,1.3E1,5.3E1,3.07E3,4.19E2,4.11E2,2.423E3,1.2505E4,3.76E2,3.42E2,1.93E2,3.1934E4,7.578E3,7.5E1,2E1,3.3E1,3.03E2,2.767E3,1.643E3,7.8E2,1.657E3,1.0848E4,1.7E2,2.06E2,4.7E1,1.46E2,1.1E2,3.1824E4,7.562E3,1.6E1,3.6E1,3.9E1,1.94E2,1.09E2,9.67E2,1.8E3,1.616E3,2.7E1,6E1,7.2E2,1.641E3,1.6E1,3.66E2,1.0482E4,2E0,4.5E1,2.3E1,1.23E2,4E1,7E1,3.774E3,2.805E4],"tree_param":{"num_deleted":"0","num_feature":"4","num_nodes":"65","size_leaf_vector":"1"}},{"base_weights":[3.0091423E-5,-2.548953E-3,4.3541407E-3,4.5110311E-4,-2.180662E-2,5.2027375E-2,1.024583E-3,-2.2973912E-3,2.8625408E-2,-2.8172238E-2,-1.5215692E-2,2.0642007E-2,4.6345245E-2,-3.3057153E-1,1.8744939E-3,-7.8552566E-4,-7.8001904E-1,6.2876344E-1,2.0338984E-2,-9.67159E-3,-7.4344077E-3,-3.981502E-3,-5.310399E-3,3.9269235E-2,1.948448E-2,2.1662368E-1,1.0409543E-3,-2.7841427E-3,1.8328333E-2,-1.0320216E0,-6.565053E-1,2.3056272E-1,1.268974E-1,-4.810077E-1,2.825242E-2,2.207505E-4,4.118766E-2,-2.1887532E-1,4.072304E-3,1.7134257E-3,-2.2287653E-3,1.031677E-1,1.8479894E-3,-3.6473837E-1,-1.0434237E-1,-9.9319845E-2,-2.0482205E-1,-4.054801E-2,-2.3727156E-1,1.25971E-2,-1.712519E-3,-6.0783938E-2,1.5767356E-2,1.568559E-2,9.299154E-3,-6.0535107E-2,-8.52747E-2,1.3386944E-1,5.962722E-4],"categories":[],"categories_nodes":[],"categories_segments":[],"categories_sizes":[],"default_left":[0,0,0,0,0,0,0,0,0,0,0,0,0,0,0,0,0,0,0,0,0,0,0,0,0,0,0,0,0,0,0,0,0,0,0,0,0,0,0,0,0,0,0,0,0,0,0,0,0,0,0,0,0,0,0,0,0,0,0],"id":21,"left_children":[1,3,5,7,9,11,13,15,17,19,21,-1,23,-1,25,27,29,31,33,-1,-1,-1,-1,35,-1,-1,37,39,41,43,45,-1,-1,47,49,51,53,55,57,-1,-1,-1,-1,-1,-1,-1,-1,-1,-1,-1,-1,-1,-1,-1,-1,-1,-1,-1,-1],"loss_changes":[6.6346085E-1,2.153019E0,3.5280557E0,2.4969416E0,2.1031284E-1,1.3515282E-1,1.9478258E1,3.454352E1,1.4239826E1,3.441739E-2,1.1700392E-2,0E0,1.4053726E-1,0E0,1.2463071E1,1.1202273E0,1.0966454E0,7.9665375E-1,1.1233324E1,0E0,0E0,0E0,0E0,5.917108E-2,0E0,0E0,1.3826403E1,1.0476935E0,1.0995235E1,1.714714E0,1.2401962E-1,0E0,0E0,4.608904E0,1.2995837E0,4.1404688E-1,8.353627E-2,2.577343E-1,1.8856937E1,0E0,0E0,0E0,0E0,0E0,0E0,0E0,0E0,0E0,0E0,0E0,0E0,0E0,0E0,0E0,0E0,0E0,0E0,0E0,0E0],"parents":[2147483647,0,0,1,1,2,2,3,3,4,4,5,5,6,6,7,7,8,8,9,9,10,10,12,12,14,14,15,15,16,16,17,17,18,18,23,23,26,26,27,27,28,28,29,29,30,30,33,33,34,34,35,35,36,36,37,37,38,38],"right_children":[2,4,6,8,10,12,14,16,18,20,22,-1,24,-1,26,28,30,32,34,-1,-1,-1,-1,36,-1,-1,38,40,42,44,46,-1,-1,48,50,52,54,56,58,-1,-1,-1,-1,-1,-1,-1,-1,-1,-1,-1,-1,-1,-1,-1,-1,-1,-1,-1,-1],"split_conditions":[-2.4687631E-2,-2.4762098E-2,4.9747307E-2,-8.459314E-2,4.797392E-1,-4.3156305E-1,4.9821775E-2,-1.738555E-1,-6.1942335E-2,-4.3156305E-1,1.3910414E0,2.0642007E-2,1.3910414E0,-3.3057153E-1,5.6155123E-2,-3.2309783E-1,4.797392E-1,4.797392E-1,-2.543277E-2,-9.67159E-3,-7.4344077E-3,-3.981502E-3,-5.310399E-3,-9.218973E-1,1.948448E-2,2.1662368E-1,1.2343711E-1,-7.7007973E-1,-3.2302326E-1,-9.934609E-2,-1.7378092E-1,2.3056272E-1,1.268974E-1,-3.213857E-2,-2.4836682E-2,-8.3982146E-1,4.797392E-1,-4.3156305E-1,2.73052E-1,1.7134257E-3,-2.2287653E-3,1.031677E-1,1.8479894E-3,-3.6473837E-1,-1.0434237E-1,-9.9319845E-2,-2.0482205E-1,-4.054801E-2,-2.3727156E-1,1.25971E-2,-1.712519E-3,-6.0783938E-2,1.5767356E-2,1.568559E-2,9.299154E-3,-6.0535107E-2,-8.52747E-2,1.3386944E-1,5.962722E-4],"split_indices":[1,1,1,1,0,0,1,1,1,0,0,0,0,0,1,1,0,0,1,0,0,0,0,3,0,0,1,1,1,1,1,0,0,1,1,2,0,0,1,0,0,0,0,0,0,0,0,0,0,0,0,0,0,0,0,0,0,0,0],"split_type":[0,0,0,0,0,0,0,0,0,0,0,0,0,0,0,0,0,0,0,0,0,0,0,0,0,0,0,0,0,0,0,0,0,0,0,0,0,0,0,0,0,0,0,0,0,0,0,0,0,0,0,0,0,0,0,0,0,0,0],"sum_hessian":[5.9491E4,3.7265E4,2.2226E4,3.2243E4,5.022E3,1.45E3,2.0776E4,2.9378E4,2.865E3,2.553E3,2.469E3,3.64E2,1.086E3,1.5E1,2.0761E4,2.9322E4,5.6E1,3.8E1,2.827E3,1.157E3,1.396E3,1.389E3,1.08E3,7.89E2,2.97E2,2.3E1,2.0738E4,2.6547E4,2.775E3,1.6E1,4E1,2.1E1,1.7E1,4.3E1,2.784E3,3.7E1,7.52E2,2.81E2,2.0457E4,9.384E3,1.7163E4,9.9E1,2.676E3,1.2E1,4E0,4E0,3.6E1,2.1E1,2.2E1,1.982E3,8.02E2,7E0,3E1,3.58E2,3.94E2,2.26E2,5.5E1,9.5E1,2.0362E4],"tree_param":{"num_deleted":"0","num_feature":"4","num_nodes":"59","size_leaf_vector":"1"}},{"base_weights":[9.149506E-6,-1.4635659E-2,6.1595294E-4,1.0922789E-3,-4.6333354E-2,2.7607834E-1,-2.062326E-4,-1.1875783E-2,2.3265181E-1,-4.2165242E-2,-1.504794E-2,1.5155657E-1,5.407629E-1,-8.266105E-2,-1.7576811E-5,9.450665E-3,-3.7676174E-2,6.4072347E-1,1.195482E-1,-1.1764592E-2,-1.3420927E-2,3.875473E-1,-1.04776315E-1,1.357829E-1,1.9196986E-1,2.2651963E-1,-3.095345E-4,-2.5519812E-2,4.4614005E-1,-1.06393635E-1,-6.0383747E-3,1.2521395E-1,2.2347231E-1,2.9393045E-2,4.3828472E-2,1.2920734E-1,1.8904018E-1,-1.850198E-2,6.998503E-4,-3.1826363E-3,-1.3348241E-2,2.1977474E-1,1.0104277E-1,-2.5596911E-2,-3.4813132E-2,9.38507E-2,-9.3189115E-3,3.3892877E-2,4.7299556E-2,9.236554E-3,-6.4505376E-3,2.0181467E-1,1.2764371E-4],"categories":[],"categories_nodes":[],"categories_segments":[],"categories_sizes":[],"default_left":[0,0,0,0,0,0,0,0,0,0,0,0,0,0,0,0,0,0,0,0,0,0,0,0,0,0,0,0,0,0,0,0,0,0,0,0,0,0,0,0,0,0,0,0,0,0,0,0,0,0,0,0,0],"id":22,"left_children":[1,3,5,7,9,11,13,15,17,19,-1,21,23,-1,25,27,29,31,33,-1,-1,35,-1,-1,-1,-1,37,39,41,43,45,-1,-1,-1,-1,47,-1,49,51,-1,-1,-1,-1,-1,-1,-1,-1,-1,-1,-1,-1,-1,-1],"loss_changes":[5.286858E-1,1.1800933E0,1.2938022E1,4.756319E0,1.0404944E-2,5.5210714E0,2.9584959E0,8.25702E-1,3.8003702E0,1.1430979E-3,0E0,1.3963201E1,1.8229198E-1,0E0,1.2548156E1,1.2564342E1,1.4755507E0,1.0793066E-1,2.4053574E-2,0E0,0E0,4.932168E0,0E0,0E0,0E0,0E0,1.0448412E0,2.1511805E-1,1.6635962E0,3.361225E-2,3.7282648E0,0E0,0E0,0E0,0E0,6.636381E-4,0E0,4.4291747E-1,9.939368E0,0E0,0E0,0E0,0E0,0E0,0E0,0E0,0E0,0E0,0E0,0E0,0E0,0E0,0E0],"parents":[2147483647,0,0,1,1,2,2,3,3,4,4,5,5,6,6,7,7,8,8,9,9,11,11,12,12,14,14,15,15,16,16,17,17,18,18,21,21,26,26,27,27,28,28,29,29,30,30,35,35,37,37,38,38],"right_children":[2,4,6,8,10,12,14,16,18,20,-1,22,24,-1,26,28,30,32,34,-1,-1,36,-1,-1,-1,-1,38,40,42,44,46,-1,-1,-1,-1,48,-1,50,52,-1,-1,-1,-1,-1,-1,-1,-1,-1,-1,-1,-1,-1,-1],"split_conditions":[-1.1871834E0,-1.2169126E0,-1.1573051E0,-1.2171361E0,4.797392E-1,-1.1574541E0,-1.1427013E0,-1.291422E0,-1.2169871E0,-4.3156305E-1,-1.504794E-2,-1.1796579E0,4.797392E-1,-8.266105E-2,-1.1424778E0,-1.291571E0,-1.2765946E0,-4.3156305E-1,4.797392E-1,-1.1764592E-2,-1.3420927E-2,-1.179807E0,-1.04776315E-1,1.357829E-1,1.9196986E-1,2.2651963E-1,-1.1127485E0,-1.3659315E0,-1.2914965E0,4.797392E-1,-1.2765201E0,1.2521395E-1,2.2347231E-1,2.9393045E-2,4.3828472E-2,4.797392E-1,1.8904018E-1,-9.1865146E-1,-1.1052976E0,-3.1826363E-3,-1.3348241E-2,2.1977474E-1,1.0104277E-1,-2.5596911E-2,-3.4813132E-2,9.38507E-2,-9.3189115E-3,3.3892877E-2,4.7299556E-2,9.236554E-3,-6.4505376E-3,2.0181467E-1,1.2764371E-4],"split_indices":[1,1,1,1,0,1,1,1,1,0,0,1,0,0,1,1,1,0,0,0,0,1,0,0,0,0,1,1,1,0,1,0,0,0,0,0,0,2,1,0,0,0,0,0,0,0,0,0,0,0,0,0,0],"split_type":[0,0,0,0,0,0,0,0,0,0,0,0,0,0,0,0,0,0,0,0,0,0,0,0,0,0,0,0,0,0,0,0,0,0,0,0,0,0,0,0,0,0,0,0,0,0,0,0,0,0,0,0,0],"sum_hessian":[5.9491E4,2.366E3,5.7125E4,1.582E3,7.84E2,1.69E2,5.6956E4,1.499E3,8.3E1,3.81E2,4.03E2,1.16E2,5.3E1,3.8E1,5.6918E4,8.21E2,6.78E2,1.7E1,6.6E1,1.85E2,1.96E2,7.9E1,3.7E1,3.1E1,2.2E1,2.1E1,5.6897E4,7.61E2,6E1,2.13E2,4.65E2,7E0,1E1,3.9E1,2.7E1,3.9E1,4E1,2.99E3,5.3907E4,4.27E2,3.34E2,1.5E1,4.5E1,7E1,1.43E2,3.3E1,4.32E2,2.8E1,1.1E1,1.71E2,2.819E3,2.1E1,5.3886E4],"tree_param":{"num_deleted":"0","num_feature":"4","num_nodes":"53","size_leaf_vector":"1"}},{"base_weights":[3.2482345E-5,2.7794912E-3,-2.8054938E-3,-1.0061455E-3,6.3840514E-3,-1.0428147E-2,-8.008484E-4,2.5821454E-3,-1.1324693E-2,8.195945E-3,-8.122179E-3,-4.784911E-3,-4.6317765E-1,3.6796287E-1,-1.1717086E-3,-5.899213E-4,1.6510209E-2,-2.858519E-1,9.616806E-4,6.0778125E-3,1.2507474E-1,-4.2927526E-3,3.0652609E-2,-6.8517053E-3,1.7575714E-1,-6.529716E-1,3.395297E-1,1.20670654E-1,-1.4330449E-3,2.4538082E-3,-4.4780325E-2,-1.2558898E-1,-3.9639384E-1,1.8308615E-2,-5.603016E-3,8.105942E-3,-1.4473894E-2,7.322774E-1,6.488039E-2,7.884598E-2,8.2675E-3,5.984973E-3,-3.346852E-2,-8.0309683E-1,1.0242436E-1,-7.726574E-2,1.1885737E0,1.4596289E-2,-2.2375449E-3,6.379989E-4,1.0585334E-1,-4.2492718E-2,1.6222614E-3,-1.4100763E-1,2.1736795E-1,-2.0560734E-1,-5.857685E-2,-4.364328E-3,3.6204362E-4,1.1827071E-3,1.2258853E-2,-4.3618605E-3,9.782088E-3,1.15746856E-1,2.5142518E-1,6.402481E-2,1.6639814E-2,-2.566688E-4,1.8854797E-1,-2.173863E-1,-6.800612E-3,-1.8599E-1,-2.6525974E-1,1.8343635E-1,-1.8921082E-1,1.06090784E-1,-1.995225E-1,-1.448198E-1,5.1812506E-1,-2.3428753E-3,1.7131733E-4],"categories":[],"categories_nodes":[],"categories_segments":[],"categories_sizes":[],"default_left":[0,0,0,0,0,0,0,0,0,0,0,0,0,0,0,0,0,0,0,0,0,0,0,0,0,0,0,0,0,0,0,0,0,0,0,0,0,0,0,0,0,0,0,0,0,0,0,0,0,0,0,0,0,0,0,0,0,0,0,0,0,0,0,0,0,0,0,0,0,0,0,0,0,0,0,0,0,0,0,0,0],"id":23,"left_children":[1,3,5,7,9,11,13,15,17,19,21,23,25,-1,27,29,-1,31,33,35,37,-1,39,41,-1,43,45,-1,47,49,51,53,55,-1,57,59,61,63,65,-1,-1,67,69,71,73,75,77,-1,79,-1,-1,-1,-1,-1,-1,-1,-1,-1,-1,-1,-1,-1,-1,-1,-1,-1,-1,-1,-1,-1,-1,-1,-1,-1,-1,-1,-1,-1,-1,-1,-1],"loss_changes":[4.6380424E-1,4.1252527E-1,4.47136E-1,5.460139E-1,4.0709656E-1,1.5565232E1,1.0547793E1,1.820572E0,1.2834327E1,3.4074633E0,4.130657E-1,7.3516207E0,1.1647881E1,0E0,2.4426403E0,1.3880528E0,0E0,2.8378878E0,1.4368564E0,5.637765E-1,8.90728E0,0E0,1.6301541E-1,2.0498877E0,0E0,6.999897E0,5.4000015E0,0E0,9.3294424E-1,1.1059889E0,3.2335305E0,2.0252472E1,5.4458456E0,0E0,2.0011404E-1,1.6786158E0,4.2289197E-3,4.831047E-1,3.0139697E-1,0E0,0E0,1.7238094E1,1.4553924E1,2.0928955E-1,4.490667E0,3.0213618E0,5.3337936E0,0E0,3.5658163E-1,0E0,0E0,0E0,0E0,0E0,0E0,0E0,0E0,0E0,0E0,0E0,0E0,0E0,0E0,0E0,0E0,0E0,0E0,0E0,0E0,0E0,0E0,0E0,0E0,0E0,0E0,0E0,0E0,0E0,0E0,0E0,0E0],"parents":[2147483647,0,0,1,1,2,2,3,3,4,4,5,5,6,6,7,7,8,8,9,9,10,10,11,11,12,12,14,14,15,15,17,17,18,18,19,19,20,20,22,22,23,23,25,25,26,26,28,28,29,29,30,30,31,31,32,32,34,34,35,35,36,36,37,37,38,38,41,41,42,42,43,43,44,44,45,45,46,46,48,48],"right_children":[2,4,6,8,10,12,14,16,18,20,22,24,26,-1,28,30,-1,32,34,36,38,-1,40,42,-1,44,46,-1,48,50,52,54,56,-1,58,60,62,64,66,-1,-1,68,70,72,74,76,78,-1,80,-1,-1,-1,-1,-1,-1,-1,-1,-1,-1,-1,-1,-1,-1,-1,-1,-1,-1,-1,-1,-1,-1,-1,-1,-1,-1,-1,-1,-1,-1,-1,-1],"split_conditions":[4.797392E-1,-4.3156305E-1,-6.9527227E-1,3.6931816E-1,1.4653516E0,-7.1017414E-1,-6.806685E-1,2.7312648E-1,6.980536E-1,8.6912715E-1,1.465426E0,-7.3275054E-1,1.3910414E0,3.6796287E-1,-6.209864E-1,5.6155123E-2,1.6510209E-2,4.2721188E-1,7.201829E-1,7.202575E-1,1.1458552E0,-4.2927526E-3,1.8532475E0,-8.444401E-1,1.7575714E-1,1.5556105E0,-4.8825788E-1,1.20670654E-1,-6.209119E-1,4.9747307E-2,1.2343711E-1,4.2199636E-1,4.966547E-1,1.8308615E-2,1.1671648E0,3.4711426E-1,7.2033185E-1,9.066799E-1,1.4652025E0,7.884598E-2,8.2675E-3,-8.5949105E-1,-8.442911E-1,-3.025203E-1,-6.9534683E-1,-6.694762E-1,-6.957193E-1,1.4596289E-2,-2.543277E-2,6.379989E-4,1.0585334E-1,-4.2492718E-2,1.6222614E-3,-1.4100763E-1,2.1736795E-1,-2.0560734E-1,-5.857685E-2,-4.364328E-3,3.6204362E-4,1.1827071E-3,1.2258853E-2,-4.3618605E-3,9.782088E-3,1.15746856E-1,2.5142518E-1,6.402481E-2,1.6639814E-2,-2.566688E-4,1.8854797E-1,-2.173863E-1,-6.800612E-3,-1.8599E-1,-2.6525974E-1,1.8343635E-1,-1.8921082E-1,1.06090784E-1,-1.995225E-1,-1.448198E-1,5.1812506E-1,-2.3428753E-3,1.7131733E-4],"split_indices":[0,0,1,1,1,1,1,1,1,1,1,1,0,0,1,1,0,1,1,1,1,0,1,1,0,3,2,0,1,1,1,1,1,0,1,1,1,1,1,0,0,1,1,3,1,2,1,0,1,0,0,0,0,0,0,0,0,0,0,0,0,0,0,0,0,0,0,0,0,0,0,0,0,0,0,0,0,0,0,0,0],"split_type":[0,0,0,0,0,0,0,0,0,0,0,0,0,0,0,0,0,0,0,0,0,0,0,0,0,0,0,0,0,0,0,0,0,0,0,0,0,0,0,0,0,0,0,0,0,0,0,0,0,0,0,0,0,0,0,0,0,0,0,0,0,0,0,0,0,0,0,0,0,0,0,0,0,0,0,0,0,0,0,0,0],"sum_hessian":[5.9491E4,3.023E4,2.9261E4,1.4745E4,1.5485E4,6.092E3,2.3169E4,1.0941E4,3.804E3,1.3766E4,1.719E3,6.018E3,7.4E1,6E0,2.3163E4,1.0318E4,6.23E2,1.62E2,3.642E3,1.3522E4,2.44E2,1.483E3,2.36E2,5.998E3,2E1,6E1,1.4E1,1.4E1,2.3149E4,9.654E3,6.64E2,6.7E1,9.5E1,3.58E2,3.284E3,1.2308E4,1.214E3,2.1E1,2.23E2,2E0,2.34E2,4.047E3,1.951E3,5E1,1E1,1E1,4E0,3.65E2,2.2784E4,9.646E3,8E0,2.26E2,4.38E2,4.8E1,1.9E1,3.8E1,5.7E1,1.419E3,1.865E3,1.0921E4,1.387E3,1.213E3,1E0,6E0,1.5E1,1.2E1,2.11E2,4.004E3,4.3E1,2.9E1,1.922E3,1.8E1,3.2E1,6E0,4E0,6E0,4E0,1E0,3E0,7.635E3,1.5149E4],"tree_param":{"num_deleted":"0","num_feature":"4","num_nodes":"81","size_leaf_vector":"1"}},{"base_weights":[3.8241662E-5,1.4152129E-3,-4.8626773E-3,-4.2457506E-4,3.416957E-2,-1.4938968E-2,5.7182E-4,4.853198E-4,-8.747436E-2,4.9761023E-2,1.4394037E-3,-1.042376E-2,-1.9433852E-2,8.265299E-1,-4.426333E-3,-3.3093154E-4,7.775815E-1,3.585448E-2,2.9095652E-2,-4.8055407E-3,6.872123E-3,-3.2067462E-3,-3.0543779E-3,-6.846338E-3,-4.608655E-3,5.811573E-1,3.120339E-1,-1.1047723E-1,2.919689E-4,9.4032113E-4,-3.7523657E-1,3.9320895E-1,2.7733716E-1,2.9823769E-2,3.5331964E-2,2.0346371E-3,-9.461193E-3,2.5771374E-1,6.867569E-1,2.5645206E-3,-5.804884E-2,5.7904497E-2,-6.4363093E-3,-1.8635186E-5,2.1874884E-1,-1.309718E-1,4.742154E-2,5.7509143E-2,1.7446737E-1,1.2831323E-2,9.723871E-3,-4.3416717E-3,-1.5893825E-3,8.314777E-3,8.598334E-2,1.0272506E-1,2.2672594E-1,-4.6629105E-2,3.3750743E-1,4.798715E-2,1.618405E-2,-3.3400855E-3,5.2642846E-3],"categories":[],"categories_nodes":[],"categories_segments":[],"categories_sizes":[],"default_left":[0,0,0,0,0,0,0,0,0,0,0,0,0,0,0,0,0,0,0,0,0,0,0,0,0,0,0,0,0,0,0,0,0,0,0,0,0,0,0,0,0,0,0,0,0,0,0,0,0,0,0,0,0,0,0,0,0,0,0,0,0,0,0],"id":24,"left_children":[1,3,5,7,9,11,13,15,-1,17,19,21,23,25,27,29,31,33,-1,35,-1,-1,-1,-1,-1,37,-1,39,41,43,45,-1,47,-1,49,-1,51,53,55,57,-1,59,61,-1,-1,-1,-1,-1,-1,-1,-1,-1,-1,-1,-1,-1,-1,-1,-1,-1,-1,-1,-1],"loss_changes":[4.0148416E-1,2.7987797E0,7.1456635E-1,1.1650083E1,1.2603962E0,9.258771E-2,3.5003094E1,2.7807592E1,0E0,1.0952306E0,1.0709349E-1,3.810227E-5,3.1232774E-2,2.068306E0,4.2172365E0,2.0872562E1,1.1904129E1,3.9461493E-2,0E0,3.3458065E-2,0E0,0E0,0E0,0E0,0E0,7.110567E-1,0E0,3.3695679E0,3.128572E0,3.186227E1,4.910246E0,0E0,5.3985393E-1,0E0,2.6517749E-2,0E0,9.144437E-3,4.522711E-2,1.9262218E-1,2.730833E1,0E0,3.3225393E-1,8.143883E-1,0E0,0E0,0E0,0E0,0E0,0E0,0E0,0E0,0E0,0E0,0E0,0E0,0E0,0E0,0E0,0E0,0E0,0E0,0E0,0E0],"parents":[2147483647,0,0,1,1,2,2,3,3,4,4,5,5,6,6,7,7,9,9,10,10,11,11,12,12,13,13,14,14,15,15,16,16,17,17,19,19,25,25,27,27,28,28,29,29,30,30,32,32,34,34,36,36,37,37,38,38,39,39,41,41,42,42],"right_children":[2,4,6,8,10,12,14,16,-1,18,20,22,24,26,28,30,32,34,-1,36,-1,-1,-1,-1,-1,38,-1,40,42,44,46,-1,48,-1,50,-1,52,54,56,58,-1,60,62,-1,-1,-1,-1,-1,-1,-1,-1,-1,-1,-1,-1,-1,-1,-1,-1,-1,-1,-1,-1],"split_conditions":[7.202575E-1,6.980536E-1,7.204064E-1,6.685479E-1,7.201829E-1,4.797392E-1,9.2717004E-1,5.330153E-1,-8.747436E-2,1.3910414E0,1.3910414E0,-4.3156305E-1,1.3910414E0,9.066799E-1,1.1671648E0,4.2721188E-1,5.7138765E-1,7.20034E-1,